tree
version=v4
num_class=1
num_tree_per_iteration=1
label_index=0
max_feature_idx=10
objective=regression
feature_names=hour dayofweek grid_lat grid_lon zh_count zd_count z_count h_count hour_sin hour_cos is_weekend
feature_infos=[0:23] [0:6] [12.8415:13.191000000000001] [77.527500000000003:77.734499999999997] [0:5.5785123966942152] [0:2.3063725490196076] [0.030991735537190084:1.1807851239669422] [0.00037190082644628097:0.52925619834710746] [-1:1] [-1:1] [0:1]
tree_sizes=5562 5628 5663 5568 5598 5597 5671 5670 5608 5639 5625 5695 5645 5666 5610 5687 5684 5676 5689 5707 5698 5596 5730 5717 5606 5686 5695 5711 5680 5692 5623 5652 5696 5667 5678 5774 5701 5741 5616 5701 5740 5658 5713 5747 5684 5713 5670 5649 5718 5736 5772 5675 5771 5806 5665 5666 5730 5647 5700 5683 5735 5753 5800 5748 5721 5713 5591 5631 5682 5738 5641 5663 5677 5741 5609 5595 5655 5622 5621 5595 5788 5637 5709 5729 5736 5703 5762 5622 5656 5736 5618 5625 5645 5674 5700 5716 5748 5736 5688 5657 5645 5697 5635 5722 5694 5704 5672 5652 5692 5673 5645 5610 5668 5611 5599

Tree=0
num_leaves=63
num_cat=0
split_feature=4 4 4 5 5 4 5 5 4 4 5 4 4 4 6 9 5 7 6 1 6 5 6 1 4 5 6 5 5 5 5 6 5 4 2 4 4 4 4 5 5 6 5 6 4 9 4 5 9 4 6 7 1 6 5 2 5 5 5 4 5 7
split_gain=60429.9 16874.8 12122.7 3684.53 3290.82 2644.06 2487.23 2115.58 1727.92 1100.6 1019.12 898.782 851.969 732.029 554.897 474.773 467.97 422.776 408.969 371.688 373.364 802.058 368.405 347.238 366.928 345.855 345.371 302.436 301.949 296.202 279.602 270.256 269.101 252.321 247.624 229.071 190.531 183.576 179.664 177.897 342.754 175.796 195.782 170.197 233.35 226.105 168.55 164.805 226.4 159.972 155.034 153.921 151.478 151.451 146.823 146.658 283.038 140.209 135.775 133.934 142.922 126.538
threshold=0.97107438016528935 0.30991735537190085 2.5867768595041327 1.2855392156862748 0.42619825708061004 0.10330578512396696 0.15836056644880178 0.28805827886710245 1.5867768595041325 0.62396694214876047 0.11669389978213508 3.6694214876033064 1.6033057851239672 4.293388429752067 0.32834022038567501 0.25881904510252057 0.052355664488017435 0.42154958677685955 0.098657024793388448 5.5000000000000009 0.73088842975206625 0.82121459694989118 0.32834022038567501 2.5000000000000004 5.0785123966942161 0.27573529411764713 0.28564049586776868 0.79779411764705899 1.4375000000000002 1.4050925925925928 0.1119281045751634 0.088842975206611594 1.4375000000000002 0.028925619834710748 12.939750000000002 0.55785123966942163 0.46694214876033063 1.0702479338842978 0.22727272727272732 0.86921296296296313 1.0049019607843139 0.22038567493112951 0.26348039215686281 0.57868457300275489 1.9008264462809918 0.25881904510252057 2.8719008264462818 0.67769607843137269 -0.37940952255126015 3.5909090909090913 0.57196969696969713 0.42154958677685955 3.5000000000000004 0.12121212121212123 0.30834694989106759 13.070250000000001 0.72426470588235303 0.29289215686274517 0.56495098039215697 0.92148760330578527 0.14045479302832245 0.47142561983471082
decision_type=2 2 2 2 2 2 2 2 2 2 2 2 2 2 2 2 2 2 2 2 2 2 2 2 2 2 2 2 2 2 2 2 2 2 2 2 2 2 2 2 2 2 2 2 2 2 2 2 2 2 2 2 2 2 2 2 2 2 2 2 2 2
left_child=1 5 4 7 10 33 16 -4 26 31 -2 17 34 15 -14 49 -3 28 -11 20 21 22 -10 24 -13 -16 -6 41 -5 -19 -7 -8 61 -1 -12 -18 -33 -28 -32 -17 -41 57 -43 45 -45 -23 -42 -21 -49 -9 -24 52 -15 59 -36 -53 -57 -20 -39 60 -37 -22
right_child=2 6 3 11 8 30 9 13 19 18 12 23 14 51 25 39 35 29 27 47 32 43 50 -25 -26 -27 37 -29 -30 -31 38 36 -34 -35 54 53 -38 58 -40 40 46 42 -44 44 -46 -47 -48 48 -50 -51 -52 55 -54 -55 -56 56 -58 -59 -60 -61 -62 -63
leaf_value=0.19290063684785105 0.20813607954523952 0.19805184107782131 0.19517170338344186 0.45491784767412319 0.32106523484280519 0.1998439044158479 0.25769990296017703 0.31949968062438738 0.40387309805604721 0.31234302502671646 0.29842417884316053 0.41309168616660014 0.31774174406152 0.32406571381684546 0.22215196588638297 0.47041492324562512 0.20951056062888895 0.40279974403055874 0.23900650447402255 0.31706895939622259 0.27255840081599353 0.36592481477562622 0.30994483382236532 0.61148960442956835 0.5916567522904429 0.27918996954075709 0.2488922182389795 0.25410069158014204 0.30876617529159772 0.49968259968947581 0.20298964526759819 0.2162413667676448 0.36637451564227386 0.19620713491661479 0.23805219903907054 0.22192775890679156 0.22410681227190762 0.26216117062236532 0.20905062449747749 0.30870857034502969 0.36904163510485855 0.21942894991892803 0.23323323558127335 0.40019109838999534 0.30088956807725042 0.49263714514123225 0.46363714366338771 0.40661563693215952 0.32358952176234834 0.36443714110634839 0.27990565965087039 0.40982464191063861 0.42735936717414641 0.21583034322521988 0.25276968373252612 0.40579503562416963 0.56406571905620018 0.26910110584196434 0.28019291714693173 0.26947200331755833 0.27091095107566721 0.30378504418938629
leaf_weight=287481 1413 7415 217 57 299 51750 478 953 89 170 216 66 717 70 371 63 20959 123 3016 264 1143 73 1274 122 51 937 1231 1797 93 220 37957 16944 99 72185 4144 1311 14112 2164 18037 112 89 3223 12649 139 103 68 100 186 147 250 648 160 72 5590 2867 57 56 444 2017 218 168 453
leaf_count=287481 1413 7415 217 57 299 51750 478 953 89 170 216 66 717 70 371 63 20959 123 3016 264 1143 73 1274 122 51 937 1231 1797 93 220 37957 16944 99 72185 4144 1311 14112 2164 18037 112 89 3223 12649 139 103 68 100 186 147 250 648 160 72 5590 2867 57 56 444 2017 218 168 453
internal_value=0.202766 0.199413 0.280459 0.375732 0.2672 0.195623 0.219434 0.343387 0.287217 0.226321 0.247686 0.472897 0.253727 0.359615 0.28239 0.343977 0.209231 0.434321 0.235102 0.30972 0.304339 0.317052 0.304422 0.55247 0.490928 0.263012 0.268753 0.23448 0.364304 0.46494 0.202493 0.22039 0.286383 0.193564 0.245695 0.212166 0.219815 0.265863 0.204942 0.394011 0.378019 0.232656 0.23043 0.383368 0.357926 0.427034 0.419092 0.346573 0.369964 0.328838 0.299817 0.418661 0.37644 0.219802 0.244071 0.440622 0.48423 0.242868 0.27086 0.232885 0.227492 0.281422
internal_weight=579897 555904 23993 2931 21062 467410 88494 2199 10397 52833 10665 732 9252 1982 2025 1567 35661 493 21299 4686 4089 2394 2011 239 117 1308 5711 21129 150 343 107744 31534 1695 359666 7227 28246 31056 5412 55994 364 301 19332 15872 383 242 141 189 597 333 1203 1922 415 142 7287 7011 273 113 3460 4181 1697 1479 1596
internal_count=579897 555904 23993 2931 21062 467410 88494 2199 10397 52833 10665 732 9252 1982 2025 1567 35661 493 21299 4686 4089 2394 2011 239 117 1308 5711 21129 150 343 107744 31534 1695 359666 7227 28246 31056 5412 55994 364 301 19332 15872 383 242 141 189 597 333 1203 1922 415 142 7287 7011 273 113 3460 4181 1697 1479 1596
is_linear=0
shrinkage=1


Tree=1
num_leaves=63
num_cat=0
split_feature=4 4 4 5 5 4 5 4 5 4 5 4 4 4 5 5 1 8 1 4 2 5 2 0 5 5 5 4 2 5 0 4 4 2 7 0 1 2 4 5 2 2 4 4 4 5 5 0 0 5 1 2 4 1 5 7 7 5 1 5 5 5
split_gain=54538 15229.5 10945.1 3130.49 3079.26 2386.27 2248.34 1682.05 1514.43 1126.59 958.119 945.154 768.902 744.9 453.145 405.544 350.645 341.319 311.376 331.153 269.462 376.296 283.873 268.593 265.998 253.083 252.341 227.72 223.48 210.135 199.369 195.76 193.346 188.004 216.243 183.039 202.303 175.576 162.146 159.619 287.349 150.604 145.346 251.512 144.264 135.914 133.069 126.065 132.359 255.442 121.772 121.185 120.023 112.52 108.019 194.422 105.679 155.154 104.671 104.249 101.64 101.431
threshold=0.97107438016528935 0.30991735537190085 2.6157024793388435 0.42619825708061004 1.1348039215686276 0.10330578512396696 0.16428376906318085 1.6487603305785126 0.28805827886710245 3.6694214876033064 0.11669389978213508 0.62396694214876047 1.6033057851239672 4.8305785123966958 0.076184640522875838 1.4375000000000002 5.5000000000000009 0.98296291314453421 2.5000000000000004 5.0785123966942161 12.974250000000001 0.79779411764705899 12.975750000000001 3.5000000000000004 0.67769607843137269 0.79779411764705899 0.1119281045751634 0.028925619834710748 12.939750000000002 0.86921296296296313 7.5000000000000009 0.6570247933884299 1.0950413223140496 12.999750000000002 0.25126033057851244 2.5000000000000004 1.5000000000000002 12.962250000000003 0.22727272727272732 0.18927015250544665 12.972750000000001 12.972750000000001 2.8719008264462818 3.3760330578512403 0.46694214876033063 1.0049019607843139 0.32257625272331164 11.500000000000002 10.500000000000002 0.72426470588235303 4.5000000000000009 12.980250000000002 1.9876033057851241 2.5000000000000004 0.56495098039215697 0.3644421487603306 0.47142561983471082 0.53553921568627461 5.5000000000000009 0.029752178649237477 0.30358115468409591 0.72426470588235303
decision_type=2 2 2 2 2 2 2 2 2 2 2 2 2 2 2 2 2 2 2 2 2 2 2 2 2 2 2 2 2 2 2 2 2 2 2 2 2 2 2 2 2 2 2 2 2 2 2 2 2 2 2 2 2 2 2 2 2 2 2 2 2 2
left_child=1 5 3 10 8 27 14 32 -4 17 -2 44 28 23 59 16 20 42 19 -11 -9 35 -23 29 -18 37 -7 -1 -12 -10 -17 -16 -5 34 50 36 -22 -13 -28 -36 -41 -26 -6 -44 -8 -31 -30 48 -15 -50 -14 -20 -35 54 -34 -56 -37 -58 -55 -3 -42 -49
right_child=2 6 4 7 9 26 11 15 13 18 12 25 33 47 31 30 24 -19 51 -21 21 22 -24 -25 41 -27 38 -29 46 45 -32 -33 53 52 39 56 -38 -39 -40 40 60 -43 43 -45 -46 -47 -48 61 49 -51 -52 -53 -54 58 55 -57 57 -59 -60 -61 -62 -63
leaf_value=-0.0093815364640116097 0.0047032114998954155 -0.0076240521292441459 -0.006685959152336227 0.048551809179558647 0.17525994423425423 -0.0027854316414410367 0.013821146593908255 0.079518852834897041 0.2542570338362739 0.19979996191281263 0.090865828897114156 0.04929375708351047 0.11519652829899907 0.19669626949355007 0.0085240659979498763 0.13147221252081856 0.10442767589685907 0.1320600591221098 0.34531816549507188 0.3694367662948721 0.18856977013373141 0.23199599518378577 0.12776090389655043 0.11846896691206794 0.13281650538872747 0.048758515703989924 0.00020302228534780999 -0.0062403629764696735 0.034352834975023852 0.10584116871369648 0.23088722353472432 0.02095043101107456 0.066188193648096472 0.0829268953465718 0.01604791002594717 0.075271188330118824 0.097742915659760829 0.027991854822311237 0.0059609522075724994 0.14787293720048864 0.014836705568498068 0.2130934375193384 0.29680465853079818 0.2112129238949827 0.020761379414037374 0.18879841626263583 0.048959124544679183 0.2088301224101867 0.1928681468754484 0.34322528900312532 0.055027539990842346 0.44047814884729553 0.13055985488143623 0.055155996654232237 0.062665241855754436 0.10978926140468803 0.07948977450385343 0.12843022745808746 0.076882189225551553 0.0020264860148659063 0.062589914515190193 0.11185261354996608
leaf_weight=287481 1451 4301 179 1595 106 51750 16418 1561 63 66 216 1022 281 160 21380 124 249 118 81 51 101 75 506 1135 103 1797 37957 72185 4670 94 85 3721 903 376 219 785 156 18079 18037 91 137 135 133 242 13766 104 2341 56 57 56 120 57 204 1729 369 538 344 306 816 8010 597 52
leaf_count=287481 1451 4301 179 1595 106 51750 16418 1561 63 66 216 1022 281 160 21380 124 249 118 81 51 101 75 506 1135 103 1797 37957 72185 4670 94 85 3721 903 376 219 785 156 18079 18037 91 137 135 133 242 13766 104 2341 56 57 56 120 57 204 1729 369 538 344 306 816 8010 597 52
internal_value=-9.1871e-06 -0.00319475 0.0737985 0.0614988 0.166519 -0.00679574 0.015825 0.0809235 0.131935 0.245732 0.0424788 0.0226455 0.0484032 0.145898 0.00651241 0.103881 0.10059 0.208262 0.333749 0.273744 0.0955141 0.106499 0.141216 0.128986 0.140555 0.0308193 -0.000268435 -0.0087511 0.0407732 0.174721 0.171904 0.0103662 0.0634452 0.0756336 0.0659815 0.0945777 0.133438 0.0291316 0.00205779 0.053994 0.064067 0.178352 0.226957 0.241569 0.0169864 0.149415 0.0392299 0.207864 0.225954 0.267381 0.0971908 0.384623 0.0996806 0.0688998 0.0784299 0.0906175 0.0876181 0.102529 0.062122 -0.00134505 0.0536768 0.162137
internal_weight=579897 555904 23993 21183 2810 467410 88494 10480 1956 854 10703 51082 9252 1777 37412 4530 4321 599 255 117 3834 2273 581 1396 487 20898 107744 359666 7227 261 209 25101 5950 2025 1445 1692 257 19101 55994 1044 825 238 481 375 30184 198 7011 381 273 113 401 138 580 4355 1810 907 1435 650 2545 12311 734 108
internal_count=579897 555904 23993 21183 2810 467410 88494 10480 1956 854 10703 51082 9252 1777 37412 4530 4321 599 255 117 3834 2273 581 1396 487 20898 107744 359666 7227 261 209 25101 5950 2025 1445 1692 257 19101 55994 1044 825 238 481 375 30184 198 7011 381 273 113 401 138 580 4355 1810 907 1435 650 2545 12311 734 108
is_linear=0
shrinkage=0.05


Tree=2
num_leaves=63
num_cat=0
split_feature=4 4 4 5 5 5 4 5 4 4 5 2 4 4 5 8 6 0 6 6 1 6 1 1 1 0 0 6 5 6 5 4 5 5 4 2 4 4 1 5 4 5 4 5 0 1 6 5 6 1 6 1 6 0 0 6 4 5 6 4 8 4
split_gain=49220.5 13749.4 9880.28 3027.21 2678.46 2095.29 2060.86 1726.27 1412.35 884.44 830.544 746.341 702.592 557.674 423.245 386.132 376.481 372.057 345.147 326.95 308.214 302.418 274.598 273.032 266.973 336.776 298.408 256.181 761.452 249.217 244.34 228.588 220.072 213.182 189.209 183.681 184.589 178.646 173.308 170.976 170.413 154.597 151.511 149.881 188.903 145.416 142.832 172.779 219.317 136.615 143.307 136.415 136.121 212.6 204.145 135.892 131.45 125.214 121.31 141.31 121.166 117.134
threshold=0.97107438016528935 0.30165289256198352 2.5867768595041327 1.2855392156862748 0.42619825708061004 0.16428376906318085 0.095041322314049603 0.4225898692810458 1.5867768595041325 0.62396694214876047 0.12145969498910676 12.980250000000002 1.8388429752066118 4.8305785123966958 0.076184640522875838 0.91597561503675362 0.098657024793388448 5.5000000000000009 0.40736914600550972 0.32834022038567501 5.5000000000000009 0.28564049586776868 4.5000000000000009 5.5000000000000009 2.5000000000000004 2.5000000000000004 2.5000000000000004 0.73088842975206625 0.82121459694989118 0.16580578512396696 0.79779411764705899 0.17768595041322319 1.4375000000000002 0.28213507625272333 0.43388429752066121 12.939750000000002 1.309917355371901 0.020661157024793392 4.5000000000000009 0.27975217864923757 5.0785123966942161 0.051198257080610023 1.0702479338842978 0.67769607843137269 7.5000000000000009 2.5000000000000004 0.22038567493112951 0.38807189542483667 0.39032369146005513 5.5000000000000009 0.19077134986225899 5.5000000000000009 0.57868457300275489 4.5000000000000009 5.5000000000000009 0.57196969696969713 3.5909090909090913 0.29289215686274517 0.10812672176308542 0.81404958677685968 0.98296291314453421 3.4958677685950419
decision_type=2 2 2 2 2 2 2 2 2 2 2 2 2 2 2 2 2 2 2 2 2 2 2 2 2 2 2 2 2 2 2 2 2 2 2 2 2 2 2 2 2 2 2 2 2 2 2 2 2 2 2 2 2 2 2 2 2 2 2 2 2 2
left_child=1 6 4 7 10 14 37 -4 21 29 -2 15 35 17 -3 38 -11 24 49 -10 27 -6 -17 40 26 -26 -9 28 55 33 46 -8 -29 -7 -16 -12 -37 -1 45 -31 -13 -33 -23 -22 -45 61 57 -48 -49 50 -14 -20 54 -54 -30 -21 -19 -18 59 -36 -38 -5
right_child=2 5 3 11 8 9 31 13 19 16 12 23 18 -15 34 22 30 56 51 20 43 42 -24 -25 25 -27 -28 32 52 39 -32 41 -34 -35 58 36 60 -39 -40 -41 -42 -43 -44 44 -46 -47 47 48 -50 -51 -52 -53 53 -55 -56 -57 -58 -59 -60 -61 -62 -63
leaf_value=-0.0089751245909805277 0.0064140867510157108 -0.0014306034759140468 0.0076343395122874542 0.30475129804015161 0.10845604193549492 0.020772093524407342 -0.0028736223137047203 0.17935849349372662 0.18420613147318365 0.10716714196197399 0.086322537637143232 0.2311566506158298 0.16217789524604406 0.19747115231444204 0.0054670609150161611 0.081368785115736961 0.032643212066213165 0.10668602760877061 0.043707137768630125 0.097110132050804293 0.099206291767488047 0.04138287605670872 0.21686333892211107 0.40246738245089847 0.16195661182274354 0.29006570700556039 0.046390128891232993 0.070363042407428716 0.26622093510540096 0.0087571701382575234 0.046320589637185848 -0.0050310644051950737 0.14718812123091535 0.045571370212095126 0.020387474671665545 0.034285148055942419 0.048991934143094024 -0.0062721716275283921 0.21101746012202721 0.017186577012778152 0.35096492654114381 0.0026936263505727481 0.061340152524826885 0.1081295286717058 0.1839691369604039 0.34898409386183704 0.019966183667357699 0.043492143499251498 0.024896747808387798 0.041104691752365662 0.10174502048548942 0.11655949251474561 0.087639550372813513 0.18242314441812982 0.14581902559897672 0.068986524735795862 0.14765469188690186 0.061187116221130433 0.01160494434859108 0.064337118479175184 0.11619844957106357 0.20261312241200358
leaf_weight=275606 1528 12849 267 50 299 4961 54374 104 104 154 216 71 126 381 13362 79 2853 903 488 1274 249 1231 71 75 143 80 71 1596 68 10131 1797 7466 99 1050 2260 5259 2392 78554 220 14809 51 48900 4181 147 186 51 8103 2266 5281 70 443 74 103 139 73 648 250 444 10485 199 69 64
leaf_count=275606 1528 12849 267 50 299 4961 54374 104 104 154 216 71 126 381 13362 79 2853 903 488 1274 249 1231 71 75 143 80 71 1596 68 10131 1797 7466 99 1050 2260 5259 2392 78554 220 14809 51 48900 4181 147 186 51 8103 2266 5281 70 443 74 103 139 73 648 250 444 10485 199 69 64
internal_value=-8.72751e-06 -0.00303501 0.0701086 0.15612 0.0581392 0.014738 -0.00651408 0.126802 0.076198 0.0213311 0.0405342 0.244192 0.0462402 0.143271 0.00600755 0.213556 0.0292783 0.129957 0.0818812 0.0965423 0.0945526 0.0595051 0.145503 0.327393 0.171638 0.207915 0.125411 0.089606 0.100457 0.0159651 0.0287001 -0.000560718 0.0748502 0.025104 0.00964067 0.0408465 0.0395741 -0.0083756 0.24007 0.0137624 0.28124 0.00167045 0.0568007 0.128549 0.15049 0.278806 0.0270289 0.0250364 0.03048 0.107018 0.115127 0.0532998 0.164834 0.142081 0.203885 0.0876283 0.115569 0.0364872 0.0139491 0.0239442 0.0508762 0.247411
internal_weight=579897 555904 23993 2931 21062 91004 464900 2199 10397 51849 10665 732 9137 1932 39155 535 20898 1551 1201 4686 4582 5711 150 197 398 223 175 4000 2305 30951 20744 110740 1695 6011 26306 7936 7720 354160 385 24940 122 56366 5412 582 333 165 18947 15650 7547 639 569 562 383 242 141 1922 1153 3297 12944 2459 2461 114
internal_count=579897 555904 23993 2931 21062 91004 464900 2199 10397 51849 10665 732 9137 1932 39155 535 20898 1551 1201 4686 4582 5711 150 197 398 223 175 4000 2305 30951 20744 110740 1695 6011 26306 7936 7720 354160 385 24940 122 56366 5412 582 333 165 18947 15650 7547 639 569 562 383 242 141 1922 1153 3297 12944 2459 2461 114
is_linear=0
shrinkage=0.05


Tree=3
num_leaves=63
num_cat=0
split_feature=4 4 4 4 4 4 4 1 1 4 2 4 8 4 8 4 1 4 1 3 6 0 6 4 6 1 0 0 3 4 1 4 3 1 4 1 3 6 6 0 2 2 4 4 1 0 2 4 3 0 2 2 3 1 0 4 1 1 1 0 0 1
split_gain=44421.5 12409.7 8936 2379.02 1948.29 1608.63 1219.57 347.532 294.714 388.417 289.273 286.711 271.668 231.03 230.947 224.766 207.57 214.438 320.228 187.993 187.444 166.218 172.932 162.338 162.242 151.987 332.524 259.882 143.417 140.907 121.916 117.746 108.372 183.577 164.83 97.1023 265.132 115.038 120.395 111.362 96.6082 96.5664 94.8993 92.1977 119.982 90.2235 128.561 87.6156 84.5789 84.004 77.528 73.7746 71.7874 68.7745 219.939 146.118 270.835 263.553 127.135 354.616 316.773 67.2562
threshold=0.97107438016528935 0.30991735537190085 2.6157024793388435 1.6487603305785126 0.11157024793388431 0.62396694214876047 3.5909090909090913 1.0000000180025095e-35 3.5000000000000004 2.5867768595041327 12.933750000000002 0.43388429752066121 0.37940952255126054 1.260330578512397 0.37940952255126054 0.037190082644628107 4.5000000000000009 4.8305785123966958 1.0000000180025095e-35 77.609250000000017 0.18371212121212124 9.5000000000000018 1.0180785123966944 0.1942148760330579 1.0180785123966944 2.5000000000000004 7.5000000000000009 8.5000000000000018 77.69325000000002 2.0495867768595049 5.5000000000000009 0.75619834710743816 77.606250000000017 5.5000000000000009 2.4297520661157033 1.5000000000000002 77.549250000000015 0.46108815426997252 0.45213498622589537 3.5000000000000004 12.963750000000003 13.070250000000001 2.1322314049586781 1.7685950413223142 2.5000000000000004 11.500000000000002 12.983250000000002 1.6652892561983472 77.576250000000016 7.5000000000000009 12.910500000000003 12.972750000000001 77.603250000000017 2.5000000000000004 5.5000000000000009 2.9214876033057857 3.5000000000000004 5.5000000000000009 5.5000000000000009 5.5000000000000009 7.5000000000000009 1.0000000180025095e-35
decision_type=2 2 2 2 2 2 2 2 2 2 2 2 2 2 2 2 2 2 2 2 2 2 2 2 2 2 2 2 2 2 2 2 2 2 2 2 2 2 2 2 2 2 2 2 2 2 2 2 2 2 2 2 2 2 2 2 2 2 2 2 2 2
left_child=1 4 3 13 15 11 14 12 9 20 -10 -3 28 -2 -4 -1 17 25 -19 -18 -9 22 35 -6 49 26 -8 -27 -5 47 -21 -7 34 -34 -31 36 -22 38 -37 -38 -23 53 -24 44 -39 46 -42 -12 -45 -14 -33 -51 -53 54 -16 57 -57 -55 59 -58 -60 -52
right_child=2 5 6 7 23 31 16 8 10 -11 29 -13 24 -15 41 -17 19 18 -20 30 21 40 42 -25 -26 27 -28 -29 -30 32 -32 50 33 -35 -36 37 39 43 -40 -41 45 -43 -44 48 -46 -47 -48 -49 -50 51 61 52 -54 55 -56 56 58 -59 60 -61 -62 -63
leaf_value=-0.0084178749198272253 0.039202144180786935 0.006494260025587297 0.1615892239879369 0.07664875801482636 -0.0019359345497194176 0.020881381001316285 0.013252125740051269 0.16226694605852429 0.016142672709035643 0.23112557392495756 0.11389411560540062 0.013354646550262653 0.00077560713120515914 0.052492691925855872 0.033672857503680619 -0.0052296893294254826 0.19026901420283984 0.30545379771467518 0.18465644168523207 0.22583137079052729 0.21021560069546102 0.11776352036330436 0.05086268519792031 0.0020762462034765116 0.083723001062434965 0.26127975774662837 0.16097442970145495 0.12551421416057668 0.16970015469193458 0.095770383197573722 0.31785317676168096 0.055742629833456847 0.093022243011565434 0.20864999265063044 0.038305389577228774 0.10197574994090791 0.14091471551462662 0.17051851449104458 0.16653247517768785 0.090294717999838181 0.044443665771949581 0.16071136028736704 0.10795920156672889 0.035395603598851078 0.075851342168407165 0.10865918185451243 0.098851442816374188 0.066392199787414494 0.085192758634413057 -0.0050823659236942029 0.018605644390979437 0.032717142423445526 0.089534695943196629 0.074488730515346269 0.11467011180290199 0.21522520371910298 0.23958005368653124 0.17720173988036994 -0.00063933764894803368 0.099619589559733879 0.16796774965925859 0.028380658351420382
leaf_weight=298657 9269 31937 366 241 51768 12975 50 95 206 52 103 29112 241 5052 102 67839 143 68 284 73 75 99 254 49146 137 70 160 71 50 697 71 238 105 51 152 267 172 65 99 295 451 117 102 106 69 101 143 1687 436 70 2057 154 87 262 470 99 66 82 60 144 52 12175
leaf_count=298657 9269 31937 366 241 51768 12975 50 95 206 52 103 29112 241 5052 102 67839 143 68 284 73 75 99 254 49146 137 70 160 71 50 697 71 238 105 51 152 267 172 65 99 295 451 117 102 106 69 101 143 1687 436 70 2057 154 87 262 470 99 66 82 60 144 52 12175
internal_value=-8.2913e-06 -0.00288326 0.0666032 0.0554895 -0.00613383 0.0142857 0.150383 0.0796962 0.0842892 0.0957119 0.0733232 0.00976572 0.0521291 0.0438906 0.126089 -0.00782774 0.195045 0.180417 0.207992 0.230877 0.0932228 0.0908237 0.0987109 1.80325e-05 0.0350206 0.152762 0.125802 0.192916 0.092637 0.0775376 0.271203 0.0243399 0.0925203 0.130824 0.0854822 0.105788 0.122953 0.0968596 0.119438 0.108938 0.0715529 0.117153 0.0672218 0.0846352 0.121772 0.0649704 0.0575418 0.0691256 0.0754538 0.0229332 0.0274411 0.0401035 0.053228 0.113341 0.100227 0.123147 0.1429 0.0989726 0.120663 0.143607 0.0776425 0.0269678
internal_weight=579897 555904 23993 21183 467410 88494 2810 6862 5882 2881 3001 61049 980 14321 1820 366496 990 703 352 287 2829 2734 1940 100914 689 351 210 141 291 2795 144 27445 1005 156 849 1584 542 1042 366 467 794 1454 356 676 134 695 594 1790 542 552 14470 311 241 1337 572 765 421 344 322 210 112 14232
internal_count=579897 555904 23993 21183 467410 88494 2810 6862 5882 2881 3001 61049 980 14321 1820 366496 990 703 352 287 2829 2734 1940 100914 689 351 210 141 291 2795 144 27445 1005 156 849 1584 542 1042 366 467 794 1454 356 676 134 695 594 1790 542 552 14470 311 241 1337 572 765 421 344 322 210 112 14232
is_linear=0
shrinkage=0.05


Tree=4
num_leaves=63
num_cat=0
split_feature=4 4 4 5 5 5 4 4 5 4 4 5 4 4 5 5 1 8 4 1 4 0 1 5 0 4 3 4 5 3 4 2 5 2 0 2 2 5 4 2 5 7 1 7 5 0 2 0 5 4 5 0 0 5 4 5 5 5 3 2 5 0
split_gain=40090.4 11202.6 8064.74 2473.95 2439.73 1837.02 1684.54 1493.36 1180.12 857.684 702.668 659.524 555.997 506.509 400.94 320.164 340.153 277.404 269.323 255.867 245.351 243.16 246.918 203.322 200.533 194.521 187.909 173.13 171.092 163.415 154.475 153.42 299.519 170.85 151.785 150.358 148.089 144.567 138.216 135.439 124.336 149.759 123.731 130.971 122.13 120.101 126.951 115.289 114.703 113.42 112.513 112.065 122.223 229.89 108.039 93.0939 91.9385 89.8562 89.8565 85.5209 84.8891 83.7323
threshold=0.97107438016528935 0.30165289256198352 2.6157024793388435 0.37738289760348592 1.1348039215686276 0.17034313725490199 0.070247933884297536 1.5867768595041325 0.28805827886710245 3.6694214876033064 0.62396694214876047 0.11669389978213508 4.8305785123966958 1.8388429752066118 0.052355664488017435 1.4375000000000002 5.5000000000000009 0.98296291314453421 0.17768595041322319 2.5000000000000004 5.0785123966942161 2.5000000000000004 3.5000000000000004 0.79779411764705899 3.5000000000000004 0.55785123966942163 77.613750000000024 1.1033057851239672 0.86921296296296313 77.694750000000013 2.450413223140496 12.974250000000001 0.79779411764705899 12.975750000000001 7.5000000000000009 12.963750000000003 12.962250000000003 0.12738289760348587 1.6404958677685955 12.935250000000002 0.67769607843137269 0.3644421487603306 1.5000000000000002 0.3644421487603306 0.95343137254901966 10.500000000000002 12.980250000000002 5.5000000000000009 0.53553921568627461 0.46694214876033063 1.0049019607843139 11.500000000000002 10.500000000000002 0.72426470588235303 1.3264462809917357 0.43259803921568635 0.72426470588235303 0.32741013071895431 77.676750000000013 13.007250000000003 0.95343137254901966 21.500000000000004
decision_type=2 2 2 2 2 2 2 2 2 2 2 2 2 2 2 2 2 2 2 2 2 2 2 2 2 2 2 2 2 2 2 2 2 2 2 2 2 2 2 2 2 2 2 2 2 2 2 2 2 2 2 2 2 2 2 2 2 2 2 2 2 2
left_child=1 6 3 11 8 14 -1 27 -4 17 39 -2 24 26 -3 16 21 45 -8 20 -11 55 31 36 28 -16 61 -5 -10 57 59 35 38 -34 -17 44 -12 -20 -33 -7 -18 -42 43 -29 -23 46 -6 -46 -45 -41 -30 52 -14 -54 -50 -9 -53 58 -28 -15 -44 -13
right_child=2 5 4 7 9 10 18 15 12 19 23 13 51 30 25 34 40 -19 37 -21 -22 22 -24 -25 -26 -27 29 42 50 -31 -32 32 33 -35 -36 -37 -38 -39 -40 49 41 -43 60 48 47 -47 -48 -49 54 -51 -52 56 53 -55 -56 -57 -58 -59 -60 -61 -62 -63
leaf_value=-0.0077739505693844085 0.0022110689772892457 -0.0049175929364188593 -0.010287924939194205 0.04051236965956146 0.17897108992682109 0.033748896051566682 -0.0030491116836217427 0.16936414196313201 0.22108014448294566 0.17212814045311517 0.04387738051437072 0.029896378272442781 0.16688172998430673 0.071451300778426236 0.0054905866184886895 0.11345150120436186 0.10072555007138595 0.11198118752721004 -0.00088958015600171876 0.33628729271931923 0.31814399881690159 0.07385901751799312 0.061266783342893386 0.042783650750906919 0.10070712159908815 0.014414971530747531 0.042486688254010641 0.046528189382313387 0.086832548519398312 0.01837863964594413 0.0068404259927132552 0.15032669238854146 0.19970481435706219 0.11721588188564623 0.2001949702992159 0.061284944658613394 0.024133121959226282 0.0041812783757789133 0.077019975719563039 0.011364936072846535 0.075057787341730936 0.16746502934521673 0.050659353210567484 0.063467647335369234 0.096810441243427775 0.27088633683323859 0.26228270977735518 0.20217592692375186 0.1318898177111005 0.017617129849010055 0.16231110758828715 0.17928223708378418 0.16411835155368115 0.30675719249993566 0.080631030665503617 0.10703830262025199 0.086953923715135231 0.11493967273733119 0.083814261586715788 0.11627819844689527 0.077913145335337608 0.074335305185781589
leaf_weight=332974 1451 7749 179 2103 379 910 75560 77 63 66 1003 5724 160 832 24168 124 319 118 29607 138 51 123 1506 1797 1135 8170 291 368 94 214 85 69 75 385 85 771 17868 26759 944 16211 56 202 3278 417 54 50 52 50 166 13128 104 56 57 56 270 270 52 91 240 122 313 108
leaf_count=332974 1451 7749 179 2103 379 910 75560 77 63 66 1003 5724 160 832 24168 124 319 118 29607 138 51 123 1506 1797 1135 8170 291 368 94 214 85 69 75 385 85 771 17868 26759 944 16211 56 202 3278 417 54 50 52 50 166 13128 104 56 57 56 270 270 52 91 240 122 313 108
internal_value=-7.87668e-06 -0.0027391 0.063273 0.052715 0.142864 0.0133037 -0.00587947 0.0676268 0.112079 0.213373 0.019607 0.0331349 0.124406 0.038957 0.00529749 0.088124 0.0855395 0.180679 -0.0010979 0.29017 0.235776 0.0807277 0.0772253 0.0267129 0.109795 0.00774528 0.0338972 0.0524798 0.149313 0.0560665 0.0714291 0.0869516 0.0972066 0.130665 0.14873 0.0718155 0.0251825 0.00151774 0.0820132 0.0147518 0.121599 0.147408 0.05771 0.0714598 0.107582 0.197532 0.189023 0.147467 0.0822158 0.0141625 0.126478 0.177941 0.194997 0.234807 0.100147 0.120869 0.134828 0.0690331 0.0611658 0.0771839 0.0530349 0.0307193
internal_weight=579897 555904 23993 21183 2810 91004 464900 12025 1956 854 50917 9158 1777 7707 40087 5110 4901 599 131926 255 117 4324 3977 20668 1396 32338 6668 6915 261 836 1039 2471 1473 460 209 998 18871 56366 1013 30249 577 258 4812 1221 227 481 431 104 853 29339 198 381 273 113 436 347 108 622 531 954 3591 5832
internal_count=579897 555904 23993 21183 2810 91004 464900 12025 1956 854 50917 9158 1777 7707 40087 5110 4901 599 131926 255 117 4324 3977 20668 1396 32338 6668 6915 261 836 1039 2471 1473 460 209 998 18871 56366 1013 30249 577 258 4812 1221 227 481 431 104 853 29339 198 381 273 113 436 347 108 622 531 954 3591 5832
is_linear=0
shrinkage=0.05


Tree=5
num_leaves=63
num_cat=0
split_feature=4 4 4 5 5 5 4 4 0 4 3 5 5 4 4 5 5 4 2 3 8 4 5 0 3 5 1 4 1 4 5 4 0 5 4 5 5 4 5 5 3 5 3 4 5 2 4 5 0 0 2 5 5 1 5 0 5 4 1 4 5 5
split_gain=37838 10560.3 7031.96 3238.32 2034.01 1899.34 1351.2 1149.58 1126.5 846.416 697.737 641.515 637.45 619.924 501.215 372.098 364.449 284.106 204.389 199.228 189.474 187.255 176.16 174.852 161.454 154.98 152.48 146.613 139.489 215.942 183.381 217.786 211.612 138.145 133.459 184.099 128.787 127.208 124.882 336.811 126.788 122.479 122.267 122.394 118.784 116.602 111.475 108.93 204.556 108.507 107.837 105.657 101.902 109.999 97.0961 92.7931 92.3429 88.9471 154.803 88.6296 146.292 86.8151
threshold=0.78099173553719015 1.9876033057851241 0.18595041322314051 1.1348039215686276 0.47426470588235298 0.1857298474945534 0.43388429752066121 4.8305785123966958 8.5000000000000018 1.0702479338842978 77.586750000000009 0.12145969498910676 0.13092320261437912 0.053719008264462818 1.2768595041322317 0.088099128540305036 0.95343137254901966 2.3925619834710745 12.937500000000002 77.653500000000022 0.98296291314453421 1.9008264462809918 0.61151960784313741 10.500000000000002 77.588250000000016 0.59558823529411775 3.5000000000000004 0.60743801652892571 4.5000000000000009 3.0000000000000004 1.2855392156862748 2.8719008264462818 7.5000000000000009 0.040509259259259266 2.2644628099173558 0.66544117647058831 1.4375000000000002 0.30165289256198352 0.77621187363834432 0.79779411764705899 77.609250000000017 0.040509259259259266 77.597250000000017 3.5909090909090913 0.26348039215686281 12.998250000000002 1.9958677685950417 0.37738289760348592 9.5000000000000018 3.5000000000000004 12.999750000000002 0.11070261437908498 0.82121459694989118 2.5000000000000004 0.39338235294117652 11.500000000000002 0.50708061002178662 1.7066115702479341 3.5000000000000004 1.1528925619834711 0.53553921568627461 0.40359477124183013
decision_type=2 2 2 2 2 2 2 2 2 2 2 2 2 2 2 2 2 2 2 2 2 2 2 2 2 2 2 2 2 2 2 2 2 2 2 2 2 2 2 2 2 2 2 2 2 2 2 2 2 2 2 2 2 2 2 2 2 2 2 2 2 2
left_child=2 4 13 5 11 51 15 25 17 -6 -10 41 33 -1 18 -4 19 -5 -13 49 28 52 -9 -24 -18 46 -12 -14 30 -30 31 -19 -32 -8 -27 -36 -22 -17 -37 -40 42 -2 43 -41 -20 -16 -7 -47 54 56 -46 -3 53 -21 -49 -25 -11 -26 -59 60 -51 -52
right_child=1 3 6 8 9 7 12 22 10 16 26 14 27 -15 45 37 24 20 44 21 36 -23 23 55 57 34 -28 -29 29 -31 32 -33 -34 -35 35 38 -38 -39 39 40 -42 -43 -44 -45 50 47 -48 48 -50 59 61 -53 -54 -55 -56 -57 -58 58 -60 -61 -62 -63
leaf_value=-0.0074939136499730073 -0.0095927922197698093 -0.0092194096265242036 -0.0019081320261960981 0.094574578002314363 0.039002664875149813 0.14005416347906832 -0.0072618749849299065 0.11992783544288166 0.1867663501288023 0.14506135588245733 0.34463890516095691 0.064290084636777559 0.014563730288031122 -0.002909284441927448 0.043505609346767497 0.0033762379704028872 0.074235212529017325 0.18141505382210019 0.021976026219505035 0.096541456890399335 0.15871114315684989 0.15840398085325263 0.16126347668468954 0.27909579169319337 0.091378466895041005 0.078154656533376277 0.25883792633900332 0.021291511465150102 0.090929575649682778 0.19991521520659011 0.12570703418552875 0.3268874414968041 0.24213893830310554 0.0065533891384808255 0.1829592067036736 0.086495620240802304 0.060401503909980093 0.0079955992249698179 0.21210057942027394 0.10633219637009982 0.072980549159574318 0.013440033042454625 0.19027777653453606 0.18724014756324536 0.028139654393029796 0.052460840903222561 0.082541572215813638 0.16468001216650011 0.016275928397145537 0.043641328491245114 0.034520746054374087 0.035868136533375443 0.14325973473202724 0.042702479002439432 0.091663294099271306 0.20477096250719007 0.073784682111374081 0.15707151646468234 0.086109996902254918 0.052057926303329893 0.088882512391003976 0.059022130971654846
leaf_weight=317026 810 361 25011 187 4129 89 2244 69 228 56 135 379 18457 96081 2901 35184 674 50 6207 183 72 86 114 83 344 332 84 14428 88 94 100 53 64 9345 89 432 62 25856 88 560 187 2008 56 51 5677 656 1580 65 72 293 1074 203 52 197 152 85 241 188 130 3052 458 545
leaf_count=317026 810 361 25011 187 4129 89 2244 69 228 56 135 379 18457 96081 2901 35184 674 50 6207 183 72 86 114 83 344 332 84 14428 88 94 100 53 64 9345 89 432 62 25856 88 560 187 2008 56 51 5677 656 1580 65 72 293 1074 203 52 197 152 85 241 188 130 3052 458 545
internal_value=6.59109e-05 0.049545 -0.00323114 0.112704 0.0380058 0.092652 0.00688559 0.105313 0.184853 0.0563987 0.24799 0.0289795 0.0139619 -0.00642761 0.032502 0.00322831 0.0684625 0.148201 0.0280768 0.0618088 0.165402 0.0910265 0.191537 0.209059 0.0914614 0.0965763 0.311729 0.0175155 0.180974 0.147219 0.203983 0.25627 0.171144 0.00387831 0.106774 0.113269 0.113225 0.00533296 0.108755 0.118963 0.109366 0.00681953 0.119566 0.113086 0.0270604 0.0484745 0.0856085 0.0637283 0.0893041 0.0581174 0.0313858 0.00700891 0.0776134 0.0686302 0.113535 0.241491 0.0872241 0.109 0.128062 0.0558443 0.0712318 0.0427686
internal_weight=579857 36225 543632 5596 30629 4379 130525 3815 1217 10083 447 20546 44474 413107 17728 86051 5954 770 13882 4618 583 518 351 282 1336 3464 219 32885 449 182 267 103 164 11589 1795 1463 134 61040 1374 942 854 2818 667 611 13503 3846 1669 945 289 4100 7296 564 432 380 217 168 297 662 318 3803 751 1619
internal_count=579857 36225 543632 5596 30629 4379 130525 3815 1217 10083 447 20546 44474 413107 17728 86051 5954 770 13882 4618 583 518 351 282 1336 3464 219 32885 449 182 267 103 164 11589 1795 1463 134 61040 1374 942 854 2818 667 611 13503 3846 1669 945 289 4100 7296 564 432 380 217 168 297 662 318 3803 751 1619
is_linear=0
shrinkage=0.05


Tree=6
num_leaves=63
num_cat=0
split_feature=4 4 4 5 5 5 5 4 0 4 4 3 5 4 4 5 6 5 6 4 6 6 6 6 5 5 0 5 2 5 6 4 5 6 0 6 5 5 5 6 6 1 4 1 7 0 1 1 5 6 6 4 5 4 0 5 7 4 6 7 1 3
split_gain=34148.8 9530.68 6353.92 2922.58 1835.69 1714.16 1176.69 1037.5 1016.66 782.815 763.891 629.707 587.886 550.278 405.291 328.916 375.798 312.186 265.134 256.406 250.193 237.416 218.205 217.408 216.382 194.581 184.702 183.982 183.355 183.312 175.371 200.835 158.984 158.674 157.804 154.401 144.611 142.248 139.869 226.886 162.227 184.871 381.861 158.689 141.898 139.326 137.613 132.4 122.485 122.159 115.35 113.109 112.629 111.903 106.751 106.949 103.526 97.5541 97.1029 95.4676 93.662 92.1569
threshold=0.78099173553719015 1.9876033057851241 0.21900826446280994 1.1348039215686276 0.47426470588235298 0.1857298474945534 0.15475217864923749 4.8305785123966958 8.5000000000000018 0.070247933884297536 1.0702479338842978 77.586750000000009 0.18688725490196081 0.46694214876033063 1.2768595041322317 0.95343137254901966 0.647210743801653 0.045206971677559916 0.26652892561983477 2.3925619834710745 0.35141184573002759 0.33505509641873282 0.14583333333333334 0.13533057851239672 0.040509259259259266 0.53553921568627461 4.5000000000000009 0.33925653594771249 12.935250000000002 0.24884259259259262 1.0523415977961434 1.7066115702479341 0.61151960784313741 0.2728994490358127 10.500000000000002 0.25654269972451799 0.2666802832244009 0.39760348583877997 0.59558823529411775 0.4023760330578513 0.647210743801653 2.5000000000000004 2.4173553719008267 3.5000000000000004 0.3644421487603306 3.5000000000000004 3.5000000000000004 3.5000000000000004 0.28805827886710245 0.35141184573002759 0.22623966942148763 0.42561983471074388 0.061887254901960793 2.4297520661157033 2.5000000000000004 0.66544117647058831 0.3109710743801653 0.97107438016528935 0.28340220385674936 0.47142561983471082 5.5000000000000009 77.609250000000017
decision_type=2 2 2 2 2 2 2 2 2 2 2 2 2 2 2 2 2 2 2 2 2 2 2 2 2 2 2 2 2 2 2 2 2 2 2 2 2 2 2 2 2 2 2 2 2 2 2 2 2 2 2 2 2 2 2 2 2 2 2 2 2 2
left_child=2 4 9 5 12 35 17 38 19 -1 21 -10 24 23 20 16 18 -4 -12 -5 28 -6 27 29 -2 -20 45 -15 -14 -8 31 -17 -9 56 -34 -3 -24 -30 39 43 41 53 -43 -7 -44 -21 -13 -33 -41 -16 -38 -19 -11 -40 -42 -56 -26 -39 -59 -49 -50 -28
right_child=1 3 6 8 10 7 13 32 11 52 15 46 14 22 49 30 -18 51 25 26 -22 -23 36 -25 33 -27 61 -29 37 -31 -32 47 34 -35 -36 -37 50 57 40 48 54 42 44 -45 -46 -47 -48 59 60 -51 -52 -53 -54 -55 55 -57 -58 58 -60 -61 -62 -63
leaf_value=-0.007003126258511118 -0.0091131528328966208 0.061355936094408953 -0.0057373638855788937 0.08984585027783154 0.079809362270507306 0.16296149246618713 0.013835971588762527 0.11393144264601279 0.17742803556795575 -0.0050609339775097451 0.17570390541638647 0.32740696068163277 0.083244504685464668 0.028508164147728856 0.059960976334428387 0.078986842477563102 0.036421514911984081 0.0024705323981396832 0.050050673522333847 0.15510832925929743 0.019359327724060651 0.033690513294801321 0.010495808242139049 0.0061869944530796011 0.033607655574279194 0.075455833058315089 0.11156739522120916 0.083282769277240293 0.030474752005392854 0.042070312893231238 0.063237966729049008 0.15525963508396173 0.15320030229917744 0.0066302017449189456 0.22941641808886615 -0.0058540296012409895 0.033889717995871059 0.034650822974722689 0.13802827150609934 0.00018664540516005623 0.13053693520511397 0.060526477567413278 0.24783033321543441 0.077273180524071505 0.1526667500343174 0.24511649096224072 0.24589603137047519 0.12151973849293173 0.073268921968891565 0.040283252547597861 0.017770561035029084 0.0079139916038023245 -0.00096899101040905295 0.058528196815190447 0.15626506285403263 0.084913680620277085 0.01697571871564597 0.12194512395395174 0.058438478020458852 0.041313585937023167 0.12281836298050233 0.15941549464109098
leaf_weight=333113 810 105 9927 187 301 133 3943 69 228 21693 56 135 190 2163 1402 469 1341 33415 1203 85 4343 3828 7319 26283 1692 2018 176 165 5500 673 494 204 114 1877 168 459 1195 397 76 54 169 68 82 91 75 87 84 114 1288 1803 15580 13358 74805 106 55 1164 2093 72 367 55 103 235
leaf_count=333113 810 105 9927 187 301 133 3943 69 228 21693 56 135 190 2163 1402 469 1341 33415 1203 85 4343 3828 7319 26283 1692 2018 176 165 5500 673 494 204 114 1877 168 459 1195 397 76 54 169 68 82 91 75 87 84 114 1288 1803 15580 13358 74805 106 55 1164 2093 72 367 55 103 235
internal_value=6.26154e-05 0.0470678 -0.00306958 0.107068 0.0361055 0.0880194 0.00742303 0.100048 0.17561 -0.00585438 0.0535787 0.23559 0.0275305 0.0124748 0.0332659 0.0650394 0.0587184 0.00231593 0.0678426 0.140791 0.0286584 0.0370525 0.0177726 0.00794464 0.0150583 0.0659673 0.157132 0.0323904 0.0348469 0.0179525 0.0868884 0.100764 0.18196 0.0185163 0.198606 0.00665846 0.0163602 0.0333956 0.0917475 0.081328 0.101436 0.129194 0.159502 0.128151 0.20237 0.200636 0.296142 0.128146 0.0740697 0.0488911 0.0189188 0.00402514 -0.00188887 0.091726 0.093296 0.088133 0.0244107 0.0526117 0.0688541 0.0954171 0.0769379 0.138926
internal_weight=579857 36225 543632 5596 30629 4379 114021 3815 1217 429611 10083 447 20546 57321 14074 5954 4618 56700 3277 770 10869 4129 26422 30899 6472 3221 583 2328 6526 4616 1336 842 351 5662 282 564 24094 6336 3464 1669 1795 407 225 224 157 172 219 373 1445 3205 16775 46773 96498 182 1388 1219 3785 836 439 169 1391 411
internal_count=579857 36225 543632 5596 30629 4379 114021 3815 1217 429611 10083 447 20546 57321 14074 5954 4618 56700 3277 770 10869 4129 26422 30899 6472 3221 583 2328 6526 4616 1336 842 351 5662 282 564 24094 6336 3464 1669 1795 407 225 224 157 172 219 373 1445 3205 16775 46773 96498 182 1388 1219 3785 836 439 169 1391 411
is_linear=0
shrinkage=0.05


Tree=7
num_leaves=63
num_cat=0
split_feature=4 4 4 5 5 5 4 4 0 4 3 5 5 4 4 5 5 6 6 4 6 5 6 5 0 6 6 4 6 5 5 5 0 6 4 6 5 0 5 6 6 1 4 0 1 1 5 6 5 6 4 2 6 5 0 5 1 6 6 5 2 4
split_gain=30819.3 8601.44 5761.3 2637.63 1656.71 1547.03 1256.58 936.341 917.539 689.411 568.311 537.144 528.532 412.89 353.661 351.365 296.846 339.157 239.283 231.406 214.268 175.609 174.156 176.449 166.694 163.059 158.272 181.253 151.45 205.74 171.769 143.483 142.418 139.347 134.097 133.713 128.734 189.129 126.232 205.143 146.41 166.846 344.629 125.742 124.377 119.491 114.293 113.545 168.753 108.143 100.993 99.5007 97.118 308.867 96.3432 96.5215 91.8561 90.7669 90.2583 91.6928 89.8401 88.9392
threshold=0.78099173553719015 1.9876033057851241 0.16115702479338848 1.1348039215686276 0.47426470588235298 0.1857298474945534 0.43388429752066121 4.8305785123966958 8.5000000000000018 1.0702479338842978 77.586750000000009 0.12145969498910676 0.13214869281045755 1.2768595041322317 0.045454545454545463 0.088099128540305036 0.95343137254901966 0.647210743801653 0.26652892561983477 2.3925619834710745 0.33505509641873282 0.53553921568627461 0.35141184573002759 0.27382897603485845 4.5000000000000009 0.16666666666666671 1.0523415977961434 1.7066115702479341 0.14583333333333334 0.23331971677559918 0.2666802832244009 0.61151960784313741 10.500000000000002 0.25654269972451799 0.30165289256198352 0.088842975206611594 1.7193627450980393 9.5000000000000018 0.59558823529411775 0.43216253443526176 0.647210743801653 2.5000000000000004 2.4173553719008267 3.5000000000000004 3.5000000000000004 3.5000000000000004 0.040509259259259266 0.26652892561983477 0.32257625272331164 0.38774104683195598 2.4297520661157033 12.935250000000002 0.13533057851239672 0.24046840958605667 2.5000000000000004 0.66544117647058831 5.5000000000000009 0.28564049586776868 0.647210743801653 0.95343137254901966 12.999750000000002 0.6322314049586778
decision_type=2 2 2 2 2 2 2 2 2 2 2 2 2 2 2 2 2 2 2 2 2 2 2 2 2 2 2 2 2 2 2 2 2 2 2 2 2 2 2 2 2 2 2 2 2 2 2 2 2 2 2 2 2 2 2 2 2 2 2 2 2 2
left_child=2 4 14 5 11 33 15 38 19 20 -10 35 46 22 -1 -4 17 18 -11 -5 -6 -20 23 25 43 -13 27 -18 29 -14 -30 -9 -33 -3 -17 -2 37 -12 39 60 41 50 -43 -21 -44 -29 -8 -15 -49 -50 -40 -25 53 -36 -42 -56 -47 -32 59 -22 -7 -31
right_child=1 3 6 8 9 7 12 31 10 16 36 13 28 47 -16 34 26 -19 21 24 58 -23 -24 51 -26 -27 -28 45 30 61 57 32 -34 -35 52 -37 -38 -39 40 -41 54 42 44 -45 -46 56 -48 48 49 -51 -52 -53 -54 -55 55 -57 -58 -59 -60 -61 -62 -63
leaf_value=-0.0068311357484714137 0.03797200899251138 0.058288137394757501 -0.0020338579932767226 0.08535355871075137 0.075818894669859124 0.090879904824708202 -0.0066119131358230825 0.10823487330606019 0.16855663225103759 0.16691870593598912 0.19036750362720342 0.038877815980818499 0.020749222210004872 0.062023789005946711 -0.0032837367923809709 0.0027881804193736 0.075037499655411455 0.034600439097101698 0.04754813979422412 0.14735291015950841 0.035665115208787013 0.071683041731355299 0.017335218106578006 0.10675964589015796 0.13197950784121515 0.01923819661611359 0.060076068095138928 0.14749665207631302 0.0094580041684677769 0.038414887572475791 0.024379043535869078 0.14554028750250214 0.21794559806585312 -0.0055613279975707235 0.0097882664163557384 0.0021806636993999206 0.33846077483476089 0.30360451024239776 0.13112685992137382 0.067047964141163749 0.1240100884556594 0.057500155094791866 0.25735403680801394 0.23286066281384438 0.161829791419974 0.050353330228622865 0.005928209769980472 0.027290395130371226 0.069047739449542261 0.041903708128829972 0.055601787694262009 0.037078523139732117 0.0053152566932113086 0.057038967028137079 0.14845180683176626 0.080667996410410683 0.12436973990305611 0.015715641205331522 0.023099968615261951 0.073895574106889614 0.13959103989629792 0.082050586789846433
leaf_weight=307552 291 105 29782 187 301 280 2244 69 228 56 64 1388 3529 704 91063 44905 469 1341 1203 85 2026 2018 4546 52 411 4430 494 204 10328 303 3819 114 168 459 7323 2527 68 87 76 1246 169 68 50 87 107 77 9549 1450 538 1154 106 3466 18170 363 55 1164 92 14512 1632 170 143 190
leaf_count=307552 291 105 29782 187 301 280 2244 69 228 56 64 1388 3529 704 91063 44905 469 1341 1203 85 2026 2018 4546 52 411 4430 494 204 10328 303 3819 114 168 459 7323 2527 68 87 76 1246 169 68 50 87 107 77 9549 1450 538 1154 106 3466 18170 363 55 1164 92 14512 1632 170 143 190
internal_value=5.94847e-05 0.0447144 -0.0029161 0.101715 0.0343003 0.0836184 0.00561775 0.0950452 0.16683 0.0508998 0.223811 0.026154 0.0126158 0.0293772 -0.00602074 0.00252224 0.0617874 0.0557825 0.0644505 0.133751 0.0351999 0.062669 0.0253608 0.0292688 0.149275 0.0239236 0.0825439 0.0957258 0.0158901 0.024976 0.014615 0.172862 0.188675 0.00632554 0.00443982 0.00587665 0.281335 0.25561 0.0871601 0.0772616 0.0963638 0.122734 0.151527 0.190604 0.192252 0.121739 0.00354205 0.0438743 0.0398076 0.0505346 0.0871397 0.0381085 0.00730828 0.0120199 0.0886312 0.0837263 0.0906463 0.0175205 0.032006 0.0386247 0.107347 0.0552319
internal_weight=579857 36225 543632 5596 30629 4379 145017 3815 1217 10083 447 20546 44474 17728 398615 100543 5954 4618 3277 770 4129 3221 13882 9336 583 5818 1336 842 32681 4022 28659 351 282 564 70761 2818 219 151 3464 1669 1795 407 225 172 157 373 11793 3846 3142 1692 182 3518 25856 7686 1388 1219 169 18331 3828 2196 423 493
internal_count=579857 36225 543632 5596 30629 4379 145017 3815 1217 10083 447 20546 44474 17728 398615 100543 5954 4618 3277 770 4129 3221 13882 9336 583 5818 1336 842 32681 4022 28659 351 282 564 70761 2818 219 151 3464 1669 1795 407 225 172 157 373 11793 3846 3142 1692 182 3518 25856 7686 1388 1219 169 18331 3828 2196 423 493
is_linear=0
shrinkage=0.05


Tree=8
num_leaves=63
num_cat=0
split_feature=4 4 4 4 4 4 4 4 4 1 4 4 1 1 1 0 0 4 4 1 3 2 8 2 1 4 1 3 1 2 7 4 1 0 1 1 2 1 1 0 2 0 8 2 7 3 3 8 3 1 1 0 0 1 1 3 2 4 4 0 1 4
split_gain=27814.4 7762.8 5200.64 1589.62 1146.68 1082.36 379.32 366.52 326.571 234.932 223.007 166.802 157.532 113.86 141.982 380.378 149.397 105.72 80.9316 72.165 131.18 62.5197 92.9322 62.5854 220.389 138.068 61.0014 54.6284 141.456 108.718 67.4387 53.4523 131.535 146.971 80.6611 53.0987 187.589 53.0168 67.773 145.53 97.8076 177.449 67.4879 66.8108 58.6258 55.7244 74.1918 52.9338 52.2467 84.9886 51.3948 391.607 111.572 53.4177 51.164 72.0922 55.313 50.3445 49.2349 48.2051 77.5229 301.734
threshold=0.78099173553719015 1.9876033057851241 0.1694214876033058 3.4958677685950419 1.4421487603305787 0.43388429752066121 5.0785123966942161 0.045454545454545463 2.8719008264462818 1.0000000180025095e-35 1.0702479338842978 0.60743801652892571 1.5000000000000002 4.5000000000000009 5.5000000000000009 7.5000000000000009 7.5000000000000009 0.33471074380165294 1.7066115702479341 4.5000000000000009 77.653500000000022 12.975750000000001 0.60355339059327384 12.977250000000002 5.5000000000000009 0.96280991735537202 1.0000000180025095e-35 77.609250000000017 5.5000000000000009 12.974250000000001 0.47142561983471082 3.0000000000000004 3.5000000000000004 7.5000000000000009 1.5000000000000002 5.5000000000000009 12.980250000000002 3.5000000000000004 1.5000000000000002 4.5000000000000009 12.975750000000001 6.5000000000000009 0.37940952255126054 12.990000000000002 0.42154958677685955 77.606250000000017 77.549250000000015 0.78656609248549325 77.607750000000024 1.0000000180025095e-35 2.5000000000000004 7.5000000000000009 7.5000000000000009 1.5000000000000002 1.5000000000000002 77.607750000000024 12.977250000000002 0.87190082644628109 0.11983471074380167 10.500000000000002 1.0000000180025095e-35 2.6157024793388435
decision_type=2 2 2 2 2 2 2 2 2 2 2 2 2 2 2 2 2 2 2 2 2 2 2 2 2 2 2 2 2 2 2 2 2 2 2 2 2 2 2 2 2 2 2 2 2 2 2 2 2 2 2 2 2 2 2 2 2 2 2 2 2 2
left_child=2 4 7 8 10 17 50 -1 59 -8 19 26 -11 31 16 -16 -15 -4 37 48 21 22 -21 24 25 -23 -7 28 54 -30 -31 -10 33 -33 -35 -29 -37 38 39 -6 44 43 -39 -42 -40 46 -41 -22 -2 -50 51 -5 -52 -53 -20 56 -56 -51 -9 60 61 -3
right_child=1 3 5 6 18 11 9 58 13 12 -12 -13 -14 14 15 -17 -18 -19 27 20 47 23 -24 -25 -26 -27 -28 35 29 30 -32 32 -34 34 -36 36 -38 42 40 45 41 -43 -44 -45 -46 -47 -48 -49 49 57 52 53 -54 -55 55 -57 -58 -59 -60 -61 -62 -63
leaf_value=-0.0064895787826656798 0.020125625049700564 0.038526401199712491 0.0015647249373679545 -0.011388141384311752 -0.0011133780828648551 0.0037529455833809882 0.29443466973304749 -0.0037234838495371668 0.11675577662736179 0.096350779473781595 0.033943284967788735 0.015770597493338475 0.19360427981818537 0.22816810745459337 0.022277336507230194 0.18102417521710909 0.12137372854984169 0.0053901089472009993 0.058647374067750335 0.043193010788736413 0.02907600045425467 0.052160648321327954 0.014302001391604785 0.034088689025325983 0.01687468225504719 0.13926436536841921 0.010493811331268999 0.069380297931221926 0.11833236489296971 0.017908949946815318 0.085448590391093787 0.032761845047421322 0.13905219379897366 0.13412667204055093 0.069119059763924809 -0.0046868062317371373 0.10203402639499733 0.055351378208156249 0.067541083509939301 0.015054637107296268 0.043230901587577093 0.033678622087523563 0.031837457763678002 0.10355956197314009 0.11796442280815106 0.035709546774023958 0.071541479195601901 -0.0020481122401653311 0.0084841910477549375 0.024159782262455909 0.19959301320569856 0.15665555156811456 0.13050856647571013 0.10747432810546853 0.032547278321631581 -0.0075912601339655954 0.055493401330403105 0.042272281935628583 -0.0012920266119121398 0.045255757587709292 0.080803490625039776 0.13352412296998725
leaf_weight=307552 8973 382 71018 51 163 3931 50 65940 250 50 8698 17590 249 65 74 77 66 24221 556 412 202 92 858 2206 177 90 22953 1049 129 66 84 136 96 93 98 100 70 430 138 69 63 467 1051 169 99 342 369 422 397 679 70 169 354 82 552 74 501 882 30427 118 2959 107
leaf_count=307552 8973 382 71018 51 163 3931 50 65940 250 50 8698 17590 249 65 74 77 66 24221 556 412 202 92 858 2206 177 90 22953 1049 129 66 84 136 96 93 98 100 70 430 138 69 63 467 1051 169 99 342 369 422 397 679 70 169 354 82 552 74 501 882 30427 118 2959 107
internal_value=5.65105e-05 0.0424787 -0.0027703 0.0966292 0.0325852 0.00554494 0.151279 -0.00564648 0.0836346 0.194117 0.0275439 0.011985 0.177341 0.109602 0.136273 0.103228 0.174363 0.00253759 0.0511506 0.0239271 0.0292879 0.0327472 0.0236745 0.0372394 0.0566 0.0952339 0.00950816 0.0568666 0.0517018 0.0846758 0.0557311 0.0984265 0.0875935 0.0724864 0.100772 0.0651794 0.0392571 0.045739 0.051315 0.0418545 0.0608463 0.0514349 0.0386646 0.0871772 0.088604 0.0508336 0.0626429 0.00802732 0.0217404 0.0291404 0.130687 0.114923 0.141914 0.140588 0.0462356 0.0401123 0.0434647 0.0343938 -0.00295577 0.0766803 0.0777557 0.0593132
internal_weight=579857 36225 543632 5596 30629 139713 1075 403919 4521 349 24088 44474 299 955 282 151 131 95239 6541 15390 4459 3835 1270 2565 359 182 26884 3181 1962 279 150 673 423 327 191 1219 170 3360 1879 943 936 699 1481 232 237 780 438 624 10931 1958 726 302 424 251 1683 1127 1053 1561 96367 3566 3448 489
internal_count=579857 36225 543632 5596 30629 139713 1075 403919 4521 349 24088 44474 299 955 282 151 131 95239 6541 15390 4459 3835 1270 2565 359 182 26884 3181 1962 279 150 673 423 327 191 1219 170 3360 1879 943 936 699 1481 232 237 780 438 624 10931 1958 726 302 424 251 1683 1127 1053 1561 96367 3566 3448 489
is_linear=0
shrinkage=0.05


Tree=9
num_leaves=63
num_cat=0
split_feature=4 4 4 4 4 4 4 4 4 1 4 1 4 4 1 1 0 0 4 1 3 4 3 1 2 0 4 4 1 3 2 4 1 7 3 1 1 3 3 1 0 3 4 1 0 8 2 1 0 0 1 4 1 4 4 2 3 1 0 1 4 1
split_gain=25102.5 7005.93 4701.81 1434.63 1036.49 708.542 616.978 342.336 294.73 212.026 166.078 142.173 117.445 104.451 102.759 128.139 343.291 134.831 85.6508 79.827 90.6122 74.8254 71.5296 77.9191 147.283 88.855 74.3697 62.943 58.0356 114.532 61.2433 62.792 56.69 137.356 54.769 71.1675 51.0781 49.3887 49.0478 48.7472 70.5473 56.86 48.2407 118.71 135.778 47.7728 47.1439 46.3839 353.425 100.694 48.2095 46.1398 44.2575 174.718 94.4493 45.2271 54.5884 99.5975 43.5051 69.9644 272.315 96.0113
threshold=0.78099173553719015 1.9876033057851241 0.22727272727272732 3.4958677685950419 1.260330578512397 0.47520661157024796 0.070247933884297536 5.0785123966942161 2.8719008264462818 1.0000000180025095e-35 1.6404958677685955 1.5000000000000002 1.0123966942148763 0.60743801652892571 4.5000000000000009 5.5000000000000009 7.5000000000000009 7.5000000000000009 0.35950413223140504 2.5000000000000004 77.689500000000024 0.14462809917355376 77.609250000000017 5.5000000000000009 12.974250000000001 8.5000000000000018 1.8388429752066118 0.012396694214876035 4.5000000000000009 77.653500000000022 12.998250000000002 0.96280991735537202 5.5000000000000009 0.33820247933884301 77.607750000000024 1.0000000180025095e-35 3.5000000000000004 77.550750000000008 77.646750000000011 2.5000000000000004 1.0000000180025095e-35 77.538750000000007 3.0000000000000004 3.5000000000000004 5.5000000000000009 0.78656609248549325 13.032750000000002 2.5000000000000004 7.5000000000000009 7.5000000000000009 1.5000000000000002 0.87190082644628109 1.0000000180025095e-35 1.8471074380165293 1.863636363636364 13.032750000000002 77.553750000000022 2.5000000000000004 10.500000000000002 1.0000000180025095e-35 2.6157024793388435 1.5000000000000002
decision_type=2 2 2 2 2 2 2 2 2 2 2 2 2 2 2 2 2 2 2 2 2 2 2 2 2 2 2 2 2 2 2 2 2 2 2 2 2 2 2 2 2 2 2 2 2 2 2 2 2 2 2 2 2 2 2 2 2 2 2 2 2 2
left_child=2 4 6 8 12 18 27 47 58 -9 19 -11 28 -7 42 17 -17 -16 -4 37 46 -8 23 36 -25 26 -26 -1 34 30 -30 -32 -24 -34 -2 38 52 -6 -36 40 -14 -41 -10 44 -44 -31 -21 48 -5 -49 -50 -37 53 -12 55 56 57 -54 59 60 -3 -61
right_child=1 3 5 7 10 13 21 9 14 11 22 -13 39 -15 15 16 -18 -19 -20 20 -22 -23 32 24 25 -27 -28 -29 29 45 31 -33 33 -35 35 51 -38 -39 -40 41 -42 -43 43 -45 -46 -47 -48 49 50 -51 -52 -53 54 -55 -56 -57 -58 -59 -60 61 -62 -63
leaf_value=-0.0063799867635615445 0.018142089311996422 0.036600081097451651 0.0024933946020640587 -0.010818736912573085 0.080601798903197061 0.0096942929846820739 -0.0027486280978583355 0.27971293044090273 0.11091798787545414 0.091533238589763644 0.011548033540838221 0.18392406264432226 0.083056039262849546 0.014982067795513775 0.21675970593324079 0.021163468697183843 0.17197296902440584 0.11530504138667533 0.0061311047356705879 0.037962226414053064 0.0062617093004206179 1.7670129554950711e-06 0.065304494750190054 0.10788977299721875 -0.0006403127583590421 0.083816779930687826 0.069329770988431474 -0.004730389860541701 0.026575257497124596 0.027622200286771995 0.036125793629935787 0.071420241902338574 0.083214662115225643 0.00016554648435748785 0.053393833740399438 0.022951792709430645 0.034083781054787002 0.044559341930182982 0.0011042732219754554 -0.012995121898976239 0.02437718892023925 0.033746840411066258 0.0071274780694927488 0.13209958897593121 0.08567697434696997 -0.0019457068382563751 0.0082046996194420126 0.18961336282747132 0.14882277343752823 0.12398313800199222 0.10210061026055639 0.040593812178236016 0.10607666058609121 0.080511081397001236 0.033053841719450562 0.088540846928460704 0.048611735032577909 0.033412231746557601 0.04299296991489196 0.097359541232256513 0.12684791884689689 0.072824827136744444
leaf_weight=258633 7660 382 48314 51 100 19910 56242 50 250 50 267 249 52 17590 65 74 77 66 24330 2375 279 44133 1250 147 110 96 58 74480 2308 202 817 149 89 113 52 679 819 1919 326 66 3424 4582 70 96 257 422 141 70 169 354 82 816 130 140 359 151 457 74 118 475 107 2484
leaf_count=258633 7660 382 48314 51 100 19910 56242 50 250 50 267 249 52 17590 65 74 77 66 24330 2375 279 44133 1250 147 110 96 58 74480 2308 202 817 149 89 113 52 679 819 1919 326 66 3424 4582 70 96 257 422 141 70 169 354 82 816 130 140 359 151 457 74 118 475 107 2484
internal_value=5.36849e-05 0.0403548 -0.00263178 0.0917977 0.030956 0.00659304 -0.0049757 0.143715 0.0794528 0.184411 0.0451322 0.168474 0.0249882 0.0121746 0.104122 0.129459 0.0980663 0.165645 0.00371174 0.0387689 0.0332967 -0.00153933 0.052323 0.047664 0.0677783 0.0454436 0.023516 -0.00601116 0.0221178 0.0272577 0.0309994 0.0415698 0.0613329 0.0367565 0.0200161 0.0276803 0.0442151 0.0463445 0.00829755 0.0297337 0.025255 0.0330831 0.0935051 0.0832139 0.0688621 0.00762596 0.0362946 0.124152 0.109177 0.134818 0.133559 0.0325811 0.0494733 0.03527 0.0544099 0.0638518 0.0582119 0.079718 0.0728463 0.0738679 0.0563476 0.0767633
internal_weight=579857 36225 543632 5596 30629 110144 433488 1075 4521 349 9074 299 21555 37500 955 282 151 131 72644 4814 2795 100375 4260 2808 411 264 168 333113 13431 3898 3274 966 1452 202 9533 1873 2397 2019 378 8124 3476 4648 673 423 327 624 2516 726 302 424 251 1495 1578 407 1171 812 661 204 3566 3448 489 2959
internal_count=579857 36225 543632 5596 30629 110144 433488 1075 4521 349 9074 299 21555 37500 955 282 151 131 72644 4814 2795 100375 4260 2808 411 264 168 333113 13431 3898 3274 966 1452 202 9533 1873 2397 2019 378 8124 3476 4648 673 423 327 624 2516 726 302 424 251 1495 1578 407 1171 812 661 204 3566 3448 489 2959
is_linear=0
shrinkage=0.05


Tree=10
num_leaves=63
num_cat=0
split_feature=4 4 5 4 5 5 4 5 2 4 4 5 4 1 5 4 1 7 7 5 2 5 5 7 5 1 4 7 1 0 2 2 5 4 2 4 8 5 2 5 5 0 1 4 1 2 5 4 5 2 2 5 2 5 4 5 5 1 5 4 0 1
split_gain=22341.3 5891.82 4485.07 2783.66 1141.34 1092.86 980.866 866.569 626.08 594.513 426.814 393.435 373.259 284.909 280.773 217.251 209.944 196.974 188.892 183.004 173.078 172.726 168.558 184.656 167.576 129.554 119.469 119.308 117.256 115.196 113.95 112.326 110.554 110.075 108.265 104.067 103.741 140.924 102.739 136.954 136.712 101.032 158.987 101.637 96.277 95.7428 95.1374 89.6528 88.2538 86.8682 86.3906 103.207 214.5 106.507 90.7845 104.331 92.2704 128.181 85.9908 143.551 122.789 138.516
threshold=0.96280991735537202 0.30991735537190085 0.50708061002178662 2.8719008264462818 0.17619825708061007 1.1348039215686276 0.10330578512396696 0.11669389978213508 12.980250000000002 1.7148760330578516 1.8719008264462811 1.7193627450980393 0.67355371900826455 5.5000000000000009 0.049972766884531596 5.1033057851239674 3.5000000000000004 0.4870247933884298 0.42154958677685955 0.29289215686274517 12.963750000000003 1.7193627450980393 1.1348039215686276 0.51380165289256208 0.061887254901960793 1.0000000180025095e-35 1.9421487603305787 0.47142561983471082 2.5000000000000004 11.500000000000002 12.933750000000002 12.937500000000002 0.71058006535947726 0.020661157024793392 12.963750000000003 0.43388429752066121 0.60355339059327384 0.58203976034858396 12.939750000000002 0.20479302832244009 0.23651960784313728 5.5000000000000009 3.5000000000000004 4.8305785123966958 2.5000000000000004 12.993750000000002 1.2855392156862748 1.8264462809917357 0.53553921568627461 12.966750000000003 12.999750000000002 0.17858115468409588 12.963750000000003 0.38807189542483667 1.8388429752066118 0.30358115468409591 0.43688725490196084 2.5000000000000004 0.79779411764705899 2.3842975206611574 5.5000000000000009 1.5000000000000002
decision_type=2 2 2 2 2 2 2 2 2 2 2 2 2 2 2 2 2 2 2 2 2 2 2 2 2 2 2 2 2 2 2 2 2 2 2 2 2 2 2 2 2 2 2 2 2 2 2 2 2 2 2 2 2 2 2 2 2 2 2 2 2 2
left_child=1 6 7 10 14 15 33 -2 21 19 18 13 31 16 -3 -5 20 -10 -4 38 26 41 47 -24 -8 32 -12 -15 -17 -30 -18 -6 -22 -1 -21 -16 37 -32 39 -9 -41 42 -7 -43 -28 -36 -29 48 -20 -14 51 -11 -53 -54 -52 -56 57 -57 60 -60 -27 -62
right_child=2 4 3 5 12 8 24 9 17 50 11 -13 49 27 35 28 30 -19 22 34 25 -23 23 -25 -26 58 44 46 29 -31 36 -33 -34 -35 45 -37 -38 -39 -40 40 -42 43 -44 -45 -46 -47 -48 -49 -50 -51 54 52 53 -55 55 56 -58 -59 59 -61 61 -63
leaf_value=-0.0060174003758005027 -0.0043958585648047801 -0.005759447649821399 0.042720930472910791 0.086387794264380813 0.027196630534408201 0.12070349299907684 -0.0040092347775391958 0.006600045182165646 0.20580526554835177 0.012861100977914798 0.062255880002948377 0.19103859681636096 0.029559038448892679 0.081594004443713605 0.0025198540011333176 0.087538722771055566 -0.001041501922021925 0.30587314285419803 0.030438398322699095 0.069387654560368245 0.15489182342164842 0.069102929388323145 0.15560704794867586 0.051285541199735912 0.00090077236903471 0.011548981365624322 0.097716396510601045 0.11817276723866846 0.21050826718409854 0.12287432686487834 0.1539997008355225 0.011304113072882579 0.083479932324493425 -0.0039505168920231839 0.028819280633591002 0.0081421133090914671 0.039709502554953452 0.05966784723502936 0.018305341249324696 0.13839757097455171 0.028425772517919543 0.12947025368939033 0.23105630808054134 0.20416113322431395 0.18803142102228271 0.043290731244094549 0.19534649775837953 0.030363193018079267 0.065316479623740917 0.019580565020635418 0.050013051085794971 0.12168363085258063 0.034374316891299272 0.060687112409737343 0.052457003214263491 0.1813097167582739 0.048459418286692424 0.09384446527659894 0.043506997874958292 0.093876608493863742 0.019721220285423752 0.092649098970772087
leaf_weight=275850 1702 6747 2804 903 1153 50 21791 84 107 172 55 72 2602 175 15871 68 113 91 202 205 68 62 96 76 85800 166 50 162 75 75 51 31130 267 84042 4562 17097 473 177 3915 65 50 265 94 55 72 1525 53 257 1776 13483 300 108 701 852 140 63 53 125 229 370 103 177
leaf_count=275850 1702 6747 2804 903 1153 50 21791 84 107 172 55 72 2602 175 15871 68 113 91 202 205 68 62 96 76 85800 166 50 162 75 75 51 31130 267 84042 4562 17097 473 177 3915 65 50 265 94 55 72 1525 53 257 1776 13483 300 108 701 852 140 63 53 125 229 370 103 177
internal_value=1.3658e-05 -0.00204742 0.04673 0.0727377 0.00981474 0.128129 -0.00428248 0.0291408 0.176012 0.0335587 0.060033 0.0756533 0.0149721 0.0726444 0.00353366 0.0972029 0.0661302 0.251796 0.0515409 0.0282869 0.0768881 0.147485 0.0618155 0.109511 -9.36785e-05 0.0709178 0.123436 0.112247 0.142002 0.166691 0.0455529 0.0118717 0.0979755 -0.00553474 0.0336485 0.00543552 0.0530639 0.0807684 0.0200868 0.0551333 0.0905837 0.157959 0.192739 0.142308 0.151017 0.0324449 0.137197 0.058145 0.0617546 0.0211947 0.0553799 0.0497304 0.0535483 0.0488099 0.0705864 0.0867858 0.106728 0.123155 0.0622438 0.0746201 0.0456218 0.0658221
internal_weight=580077 555566 24511 9889 88083 1845 467483 14622 724 12920 8044 2833 48368 2761 39715 1121 2371 198 5211 10406 1557 526 2407 172 107591 1380 177 390 218 150 814 32283 335 359892 6292 32968 701 228 4114 199 115 464 144 320 122 6087 215 2235 1978 16085 2514 1833 1661 1553 681 381 241 188 1045 599 446 280
internal_count=580077 555566 24511 9889 88083 1845 467483 14622 724 12920 8044 2833 48368 2761 39715 1121 2371 198 5211 10406 1557 526 2407 172 107591 1380 177 390 218 150 814 32283 335 359892 6292 32968 701 228 4114 199 115 464 144 320 122 6087 215 2235 1978 16085 2514 1833 1661 1553 681 381 241 188 1045 599 446 280
is_linear=0
shrinkage=0.05


Tree=11
num_leaves=63
num_cat=0
split_feature=4 4 5 4 5 5 5 4 4 4 1 4 4 5 6 6 5 6 5 3 6 5 6 5 4 4 5 7 5 5 6 6 6 5 7 5 5 3 1 6 4 6 6 4 4 6 5 6 5 5 5 3 6 5 5 5 3 5 4 6 5 6
split_gain=20163 5320.89 4047.77 2512.25 1268.97 986.305 782.079 599.253 536.548 508.954 467.089 462.819 385.2 355.075 330.765 314.636 299.862 244.241 234.409 219.411 208.558 204.79 204.01 248.143 199.599 193.062 183.665 170.475 165.52 158.497 227.517 173.78 155.688 152.124 166.652 149.719 136.398 127.326 140.983 125.391 122.444 133.064 117.316 112.713 111.645 103.942 103.345 100.811 99.9764 108.022 98.8734 98.0889 89.7759 88.7918 82.724 82.0065 100.941 81.0235 77.7961 76.3449 127.271 76.1689
threshold=0.96280991735537202 0.22727272727272732 0.50708061002178662 2.8719008264462818 0.16428376906318085 1.1348039215686276 0.11669389978213508 0.56611570247933896 1.7148760330578516 3.6694214876033064 5.5000000000000009 0.070247933884297536 1.8719008264462811 1.7193627450980393 0.57196969696969713 0.088326446280991747 0.049972766884531596 0.38774104683195598 1.0948393246187365 77.609250000000017 0.093836088154269984 0.29534313725490202 0.2728994490358127 0.30834694989106759 5.0785123966942161 2.3925619834710745 0.29289215686274517 0.42154958677685955 1.3229847494553379 0.39760348583877997 0.28340220385674936 0.16580578512396696 0.16804407713498626 1.1348039215686276 0.51380165289256208 0.30358115468409591 0.24884259259259262 77.606250000000017 1.5000000000000002 0.47675619834710753 0.43388429752066121 0.12121212121212123 0.33798209366391191 3.1652892561983474 1.9876033057851241 0.20661157024793392 0.12261710239651417 0.91787190082644632 0.31188725490196084 0.37023420479302838 1.5318627450980393 77.60475000000001 1.1232782369146008 0.54534313725490213 0.31903594771241833 1.4050925925925928 77.588250000000016 0.061887254901960793 0.49173553719008273 0.46108815426997252 0.65509259259259267 0.15340909090909094
decision_type=2 2 2 2 2 2 2 2 2 2 2 2 2 2 2 2 2 2 2 2 2 2 2 2 2 2 2 2 2 2 2 2 2 2 2 2 2 2 2 2 2 2 2 2 2 2 2 2 2 2 2 2 2 2 2 2 2 2 2 2 2 2
left_child=1 11 6 12 16 19 -2 15 22 28 24 -1 27 14 37 51 -3 35 -16 52 -9 -19 26 -24 -11 55 61 -4 -7 31 45 54 36 39 -35 -10 -17 38 -14 53 -18 46 -25 -30 -37 -31 -42 -27 -23 -50 -45 58 -5 -29 -22 56 -20 -13 -6 60 -32 -8
right_child=2 4 3 5 7 9 8 20 17 10 -12 57 13 -15 18 32 40 21 25 -21 29 48 23 42 -26 47 -28 33 43 30 59 -33 -34 34 -36 44 -38 -39 -40 -41 41 -43 -44 50 -46 -47 -48 -49 49 -51 -52 -53 -54 -55 -56 -57 -58 -59 -60 -61 -62 -63
leaf_value=-0.0054382095022252625 -0.0041760656728762717 -0.0051312092778097364 0.040584883800363659 0.12509858717802416 0.0083529112706764025 0.19679969134792855 0.076862294850654378 0.080413701729987991 0.062307974535154589 0.14846678037029595 0.33124241487433514 -0.0042297192981929797 0.033347812826818257 0.18148666712351971 0.047630895840376615 0.010301330147968163 0.0021522517293396984 0.004883091564418054 0.064293737270852067 0.06492577979585569 0.024573325324784956 0.10826521445597921 0.011868551470845888 0.044522314308476689 0.26017267813808037 0.15505303424922215 0.063207392599795964 0.037171107616775965 0.18627175121967282 0.098776583777119731 0.023358790729491628 0.012282074997736469 0.0056394741055153311 0.14782669397536666 0.048721265109059844 0.083353357566175637 0.026250179726720002 0.12891286134433289 0.10564322178930644 0.047562965831460184 0.0097950512851412239 0.0043311637754303587 0.026051151793285966 0.12847652906660251 0.15789462728425863 0.042642672693627516 0.025823534580566677 0.093611776171972527 0.017258433949755857 0.053765561140650842 0.068501109401188282 0.062047558286768237 0.088018530675452275 0.082753756357024671 0.062252921343613904 0.1026201505213976 0.0038942344206315213 -0.00080905610822985363 0.075893888805272453 0.017412942312740275 0.054683788235686703 0.028417373757455695
leaf_weight=333091 1702 11421 2804 406 218 89 86 134 586 134 72 22232 102 72 1375 6897 33681 306 270 442 2199 70 3015 1084 57 87 633 134 56 96 3038 12710 26331 96 76 135 1664 260 199 1574 3700 10742 4153 215 80 585 1381 287 249 1088 101 334 273 527 156 88 93 78214 53 6326 363 1435
leaf_count=333091 1702 11421 2804 406 218 89 86 134 586 134 72 22232 102 72 1375 6897 33681 306 270 442 2199 70 3015 1084 57 87 633 134 56 96 3038 12710 26331 96 76 135 1664 260 199 1574 3700 10742 4153 215 80 585 1381 287 249 1088 101 334 273 527 156 88 93 78214 53 6326 363 1435
internal_value=1.29751e-05 -0.00194505 0.0443935 0.0691008 0.00727803 0.121722 0.0276838 0.0123693 0.0318808 0.167212 0.222714 -0.0045411 0.0570313 0.0718707 0.0690121 0.00816375 0.00217178 0.0526109 0.0602731 0.0923428 0.0181992 0.0419539 0.0268725 0.0232957 0.181803 0.0813433 0.0405754 0.0489638 0.135548 0.0178719 0.0226169 0.0145937 0.00754389 0.0587247 0.104036 0.0754017 0.0134013 0.103283 0.0811444 0.0552377 0.00385664 0.00748463 0.0298745 0.120893 0.11109 0.0505558 0.0141515 0.107904 0.0500162 0.0469666 0.109307 0.0439127 0.11019 0.0735131 0.0270693 0.0593172 0.0488195 -0.00156616 0.021562 0.0206609 0.0267022 0.0311565
internal_weight=580077 555566 24511 9889 122029 1845 14622 61104 12920 724 263 433537 8044 2833 2761 35497 60925 2514 2200 1121 25607 1713 10406 8252 191 825 2154 5211 461 25473 10408 15065 34892 2407 172 801 8561 561 301 2235 49504 15823 5237 372 215 681 5081 374 1407 1337 316 605 679 661 2355 451 363 100446 271 9727 3401 1521
internal_count=580077 555566 24511 9889 122029 1845 14622 61104 12920 724 263 433537 8044 2833 2761 35497 60925 2514 2200 1121 25607 1713 10406 8252 191 825 2154 5211 461 25473 10408 15065 34892 2407 172 801 8561 561 301 2235 49504 15823 5237 372 215 681 5081 374 1407 1337 316 605 679 661 2355 451 363 100446 271 9727 3401 1521
is_linear=0
shrinkage=0.05


Tree=12
num_leaves=63
num_cat=0
split_feature=4 4 5 4 5 5 4 5 2 4 4 5 4 5 1 5 3 1 3 7 2 7 5 5 2 5 7 1 5 0 4 2 4 7 2 7 2 4 5 4 8 5 4 5 0 1 0 5 0 5 0 5 4 4 4 4 2 1 5 5 4 1
split_gain=18197.2 4818.33 3653.11 2267.31 951.896 890.14 801.049 717.844 510.551 453.504 347.643 320.456 274.558 259.173 237.282 198.053 198.019 183.538 241.914 173.363 160.444 153.854 144.814 142.564 139.433 137.292 150.404 121.445 112.854 157.167 122.231 107.114 106.993 100.261 99.5936 97.3168 97.0032 94.0308 91.2627 90.6403 89.2711 118.872 88.6683 100.116 87.055 142.718 91.6568 189.441 281.655 84.4713 82.4751 81.4445 79.2315 80.2971 78.9782 78.5759 76.44 78.5505 75.7171 75.5363 75.6564 114.942
threshold=0.96280991735537202 0.30991735537190085 0.50708061002178662 2.8719008264462818 0.19526143790849676 1.1348039215686276 0.11157024793388431 0.18688725490196081 12.980250000000002 1.7314049586776863 1.8719008264462811 1.7193627450980393 0.67355371900826455 0.089256535947712434 5.5000000000000009 0.1047794117647059 77.609250000000017 3.5000000000000004 77.607750000000024 0.4870247933884298 12.963750000000003 0.42154958677685955 1.7193627450980393 0.044049564270152518 12.999750000000002 1.1348039215686276 0.51380165289256208 2.5000000000000004 0.77621187363834432 5.5000000000000009 2.2644628099173558 12.939750000000002 0.020661157024793392 0.47142561983471082 12.963750000000003 0.25126033057851244 12.933750000000002 0.55785123966942163 0.23651960784313728 3.0000000000000004 0.60355339059327384 0.58203976034858396 1.2024793388429755 0.48039215686274517 5.5000000000000009 3.5000000000000004 8.5000000000000018 1.4375000000000002 9.5000000000000018 1.2855392156862748 8.5000000000000018 0.66544117647058831 3.5909090909090913 3.3181818181818188 1.5867768595041325 1.8264462809917357 12.966750000000003 5.5000000000000009 0.028594771241830068 0.53553921568627461 1.6487603305785126 2.5000000000000004
decision_type=2 2 2 2 2 2 2 2 2 2 2 2 2 2 2 2 2 2 2 2 2 2 2 2 2 2 2 2 2 2 2 2 2 2 2 2 2 2 2 2 2 2 2 2 2 2 2 2 2 2 2 2 2 2 2 2 2 2 2 2 2 2
left_child=1 6 7 10 13 16 32 15 22 31 21 14 34 58 17 -2 52 18 28 -10 -11 -4 44 -8 39 55 -27 -26 29 -12 -30 38 -1 -16 -6 -17 -19 -15 -9 -22 41 -38 -33 -44 45 -7 -46 -48 -49 -35 51 -31 53 -5 -45 59 -14 -58 -3 -23 -61 -62
right_child=2 4 3 5 12 8 23 9 19 20 11 -13 56 37 33 35 -18 36 -20 -21 24 25 -24 -25 27 26 -28 -29 30 50 -32 42 -34 49 -36 -37 40 -39 -40 -41 -42 -43 43 54 46 -47 47 48 -50 -51 -52 -53 -54 -55 -56 -57 57 -59 -60 60 61 -63
leaf_value=-0.0054446198587829661 -0.0078183326686371568 -0.0072362062415715581 0.03855563974064511 0.10747653320927093 0.020494511838615455 0.10671481907367707 -0.005069929710493244 0.10372999749112739 0.18414012027956617 0.11984337695528953 0.0020805840026478324 0.17241233130787603 0.028222628790724409 0.0046750877619956962 0.073602826782635286 0.038241559061017345 0.061679491481629968 -0.002613267101413381 0.10912418304747901 0.2780190257130416 0.04168572387989667 0.026883010195549763 0.061319889368549478 0.00076346105021856845 0.11359640961753675 0.14043535968909662 0.046285202165171013 0.056368745435251902 0.048306923212610653 0.13719727516806912 0.087980104825056804 0.022429065072161594 -0.0034655810263944592 0.10664862514887419 0.010349849828434957 0.01135906861020167 0.14026471391028048 0.010890340625063912 0.037290129196799505 0.10248620231723181 0.034918948641759651 0.053627409760729744 0.029513838674971007 0.045740142079437676 0.088461362883448608 0.21126889312996511 0.092971528541100662 0.27131417496637866 0.12011357988630023 0.1793677145017768 0.031809841970766875 0.061285583776826004 0.12075846430066224 0.056484697304154174 0.10477697419719055 0.02646688478038527 0.016459971207351581 0.027335761077304732 0.00064337128180649383 0.054525884133179575 0.13171095214784145 0.06264597808618641
leaf_weight=275850 1378 4173 2804 188 2667 50 11871 83 107 89 171 72 2224 20425 175 410 442 113 311 91 1452 202 62 88995 147 96 76 251 337 53 458 4760 90767 162 26053 1882 51 8668 137 64 473 177 3463 441 100 94 95 55 70 53 121 106 360 131 65 257 10587 1969 11317 1479 84 213
leaf_count=275850 1378 4173 2804 188 2667 50 11871 83 107 89 171 72 2224 20425 175 410 442 113 311 91 1452 202 62 88995 147 96 76 251 337 53 458 4760 90767 162 26053 1882 51 8668 137 64 473 177 3463 441 100 94 95 55 70 53 121 106 360 131 65 257 10587 1969 11317 1479 84 213
internal_value=1.23263e-05 -0.0018478 0.0421738 0.0656457 0.00887943 0.115636 -0.00386902 0.0262996 0.158851 0.0327127 0.0541798 0.0682771 0.0141415 0.00374516 0.0655615 0.00716162 0.0877257 0.0596168 0.0696753 0.227286 0.0542187 0.0465156 0.13309 7.69246e-05 0.0511672 0.0557885 0.0988341 0.0775056 0.0598289 0.0398503 0.0711627 0.0278991 -0.00495465 0.101703 0.0112919 0.0161679 0.040377 0.00652687 0.0623561 0.0442525 0.047307 0.0730068 0.0270307 0.0325493 0.14268 0.174965 0.128152 0.146193 0.186642 0.124575 0.0629169 0.0865895 0.104681 0.0865363 0.0533239 0.0524758 0.0196788 0.0181655 -0.00147938 0.0558551 0.0591504 0.0821795
internal_weight=580077 555566 24511 9889 88083 1845 467483 14622 724 10952 8044 2833 43500 44583 2761 3670 1121 2371 1557 198 2003 5211 526 100866 1914 2407 172 398 1246 451 795 8949 366617 390 28720 2292 814 29093 220 1516 701 228 8729 3969 464 144 320 220 125 215 280 159 679 319 506 2235 14780 12556 15490 1978 1776 297
internal_count=580077 555566 24511 9889 88083 1845 467483 14622 724 10952 8044 2833 43500 44583 2761 3670 1121 2371 1557 198 2003 5211 526 100866 1914 2407 172 398 1246 451 795 8949 366617 390 28720 2292 814 29093 220 1516 701 228 8729 3969 464 144 320 220 125 215 280 159 679 319 506 2235 14780 12556 15490 1978 1776 297
is_linear=0
shrinkage=0.05


Tree=13
num_leaves=63
num_cat=0
split_feature=5 7 5 7 5 7 0 7 5 5 7 5 5 2 7 2 1 1 0 3 0 0 2 0 2 2 0 2 5 1 0 3 0 0 5 5 0 2 3 0 1 0 3 2 2 5 3 0 1 2 0 5 1 2 0 1 1 2 7 3 0 5
split_gain=5183.64 6579.97 2693.72 1802.11 1404.02 943.536 838.187 806.152 647.333 631.464 368.574 342.726 318.079 201.993 159.834 288.322 215.64 311.072 260.682 220.442 183.734 132.687 131.857 303.623 203.104 190.176 143.09 131.842 173.807 160.134 165.855 151.969 307.169 127.54 299.205 149.559 116.258 115.985 113.882 170.615 142.193 118.593 111.101 103.436 100.042 97.938 142.915 115.191 103.276 97.1214 94.1281 93.5885 92.2557 90.1303 382.962 87.9471 85.1817 83.0825 81.7738 80.3041 79.0599 78.7414
threshold=0.39760348583877997 0.29231404958677693 1.1348039215686276 0.18022727272727276 0.19641884531590417 0.42154958677685955 13.500000000000002 0.47142561983471082 1.4050925925925928 0.53553921568627461 0.42154958677685955 0.10355392156862746 0.79779411764705899 12.963750000000003 0.33820247933884301 12.980250000000002 3.5000000000000004 5.5000000000000009 5.5000000000000009 77.576250000000016 4.5000000000000009 11.500000000000002 13.070250000000001 8.5000000000000018 12.990000000000002 12.981750000000002 9.5000000000000018 12.969750000000001 1.0049019607843139 3.5000000000000004 12.500000000000002 77.676750000000013 1.5000000000000002 10.500000000000002 0.72426470588235303 0.72426470588235303 11.500000000000002 12.972750000000001 77.609250000000017 8.5000000000000018 5.5000000000000009 9.5000000000000018 77.577750000000023 13.010250000000003 12.963750000000003 0.30358115468409591 77.694750000000013 8.5000000000000018 5.5000000000000009 12.983250000000002 1.0000000180025095e-35 0.04643246187363835 1.5000000000000002 13.070250000000001 11.500000000000002 3.5000000000000004 3.5000000000000004 12.983250000000002 0.34997933884297522 77.570250000000016 14.500000000000002 0.48039215686274517
decision_type=2 2 2 2 2 2 2 2 2 2 2 2 2 2 2 2 2 2 2 2 2 2 2 2 2 2 2 2 2 2 2 2 2 2 2 2 2 2 2 2 2 2 2 2 2 2 2 2 2 2 2 2 2 2 2 2 2 2 2 2 2 2
left_child=3 6 5 60 11 12 27 14 13 43 -6 51 53 -9 15 -4 19 18 -18 -16 -19 44 24 -24 25 26 37 28 -2 30 50 -29 52 35 -35 -25 -17 -11 39 -10 41 -40 -15 57 56 46 -12 -48 -49 -27 -30 -5 -33 -3 -55 -39 -14 61 -13 -26 -1 -7
right_child=1 2 7 4 10 9 -8 8 38 22 45 58 21 42 16 36 17 20 -20 -21 -22 -23 23 33 59 49 -28 31 29 -31 -32 32 -34 34 -36 -37 -38 55 40 -41 -42 -43 -44 -45 -46 -47 47 48 -50 -51 -52 -53 -54 54 -56 -57 -58 -59 -60 -61 -62 -63
leaf_value=-0.0031900168166722632 0.013000320458340101 0.014777687552059949 0.016472029207510286 -0.0045169358836189017 0.0053917789154109691 0.023727041823681221 -0.0039407571056582578 0.024594656518987706 0.064306098818778995 0.039637737037533774 0.010295977944761349 0.00013483954476451633 0.055273548272824047 0.082427748251244978 0.13660497113839906 0.054903192652596369 0.19773485527408344 -0.014044074885180738 0.087621312818237554 0.039530270905562923 0.084639287236495886 0.011274161981908899 0.0015078174852833307 0.12771339270803664 0.062259022503251764 0.10369373024250883 0.039373773431070735 0.0070599754860121633 0.11500500571558769 0.0098560824287516301 0.00042349917463736959 0.11207869275073921 0.0024742099760782601 0.063503743128644097 0.22994951158761978 0.041491406446878328 0.14475580077204439 0.080280320153891097 0.2069550574243981 0.17554200812503026 0.26770223159132139 0.11769876149172585 0.14503253267634483 0.053263785968351011 0.038352845056313645 0.018924475352667718 0.088053003122511603 0.011999633923054689 0.087623291259462194 0.057620611038040281 0.058251313631724866 -0.0014911180990906331 0.046178505525435558 0.013164457304870592 0.14239652377285369 0.052173263502662985 0.11944307861583575 0.014598124570124594 0.0032432450683935275 0.021266123450733476 -0.0052241462163452592 0.038474387263142021
leaf_weight=63666 2233 11130 371 38369 36772 2512 29450 111 50 476 11434 42252 198 218 67 72 108 61 107 460 208 380 97 90 142 269 1600 11086 97 273 101 112 303 54 54 114 72 691 98 111 53 60 105 355 1243 6615 97 252 55 199 296 76520 101 267 73 466 70 1334 42381 753 191298 1415
leaf_count=63666 2233 11130 371 38369 36772 2512 29450 111 50 476 11434 42252 198 218 67 72 108 61 107 460 208 380 97 90 142 269 1600 11086 97 273 101 112 303 54 54 114 72 691 98 111 53 60 105 355 1243 6615 97 252 55 199 296 76520 101 267 73 466 70 1334 42381 753 191298 1415
internal_value=1.17101e-05 0.0127328 0.0325157 -0.00174445 0.00122984 0.0275272 0.000915718 0.0838173 0.124268 0.0386507 0.00828539 -0.000723035 0.0186848 0.0827827 0.0624523 0.0397797 0.0740016 0.0980974 0.142934 0.0518718 0.0622613 0.0376848 0.0515651 0.0787701 0.0491441 0.0543129 0.0500006 0.0107105 0.0200537 0.0405885 0.0575722 0.00829455 0.0348189 0.102791 0.146727 0.0795305 0.0998295 0.0604127 0.172667 0.140997 0.196833 0.17306 0.102779 0.0271414 0.0443268 0.0140516 0.0113286 0.0405553 0.0255478 0.0841028 0.0722592 -0.00250164 0.0808302 0.0155524 0.0409113 0.0689598 0.0720342 0.0253787 0.00169141 0.02777 -0.00471621 0.0290409
internal_weight=580077 70366 26314 509711 254747 23982 44052 2332 806 10621 55225 199522 13361 434 1526 515 1011 484 215 527 269 1891 5005 409 4596 3701 3233 14602 3000 767 494 11602 516 312 108 204 144 1633 372 161 211 158 323 5616 1511 18453 11838 404 307 468 393 114889 213 11470 340 1157 268 5261 84633 895 254964 3927
internal_count=580077 70366 26314 509711 254747 23982 44052 2332 806 10621 55225 199522 13361 434 1526 515 1011 484 215 527 269 1891 5005 409 4596 3701 3233 14602 3000 767 494 11602 516 312 108 204 144 1633 372 161 211 158 323 5616 1511 18453 11838 404 307 468 393 114889 213 11470 340 1157 268 5261 84633 895 254964 3927
is_linear=0
shrinkage=0.05


Tree=14
num_leaves=63
num_cat=0
split_feature=4 4 4 4 4 4 4 1 1 3 1 0 4 4 4 4 4 0 1 1 4 1 0 1 3 0 1 0 2 0 1 1 7 4 1 1 1 3 4 3 1 2 3 4 1 1 2 2 1 2 0 4 1 4 1 7 4 1 2 0 1 2
split_gain=15300.8 4087.63 2917.02 875.375 692.787 526.136 395.617 219.728 254.892 117.25 143.373 111.477 145.585 95.8446 99.705 92.5413 82.9045 80.4603 147.46 75.2471 90.7212 75.0674 132.988 86.9346 106.923 73.6297 72.8437 165.741 67.914 60.3911 58.4592 54.8481 54.6111 53.8962 108.324 52.6378 154.289 51.2636 55.8479 51.0569 62.2897 68.2966 61.3856 49.9464 61.961 110.494 171.033 83.5609 76.0999 52.4831 46.0015 44.9405 44.1061 160.864 212.931 59.7868 47.2753 42.7017 41.2692 41.1269 39.4549 38.9155
threshold=0.96280991735537202 0.36776859504132237 2.5867768595041327 0.11983471074380167 1.4669421487603309 4.8305785123966958 0.56611570247933896 1.0000000180025095e-35 5.5000000000000009 77.69325000000002 1.5000000000000002 1.0000000180025095e-35 2.9421487603305789 1.9173553719008267 2.450413223140496 0.020661157024793392 0.21074380165289261 10.500000000000002 2.5000000000000004 1.0000000180025095e-35 0.68181818181818199 5.5000000000000009 7.5000000000000009 3.5000000000000004 77.606250000000017 8.5000000000000018 2.5000000000000004 5.5000000000000009 12.972750000000001 9.5000000000000018 3.5000000000000004 1.0000000180025095e-35 0.12679752066115704 3.3760330578512403 3.5000000000000004 1.0000000180025095e-35 1.5000000000000002 77.609250000000017 3.4090909090909096 77.550750000000008 2.5000000000000004 12.978750000000002 77.597250000000017 2.9214876033057857 5.5000000000000009 3.5000000000000004 12.963750000000003 12.972750000000001 1.0000000180025095e-35 12.972750000000001 9.5000000000000018 1.0950413223140496 4.5000000000000009 0.98760330578512412 5.5000000000000009 0.3644421487603306 0.97107438016528935 1.0000000180025095e-35 12.974250000000001 9.5000000000000018 2.5000000000000004 12.963750000000003
decision_type=2 2 2 2 2 2 2 2 2 2 2 2 2 2 2 2 2 2 2 2 2 2 2 2 2 2 2 2 2 2 2 2 2 2 2 2 2 2 2 2 2 2 2 2 2 2 2 2 2 2 2 2 2 2 2 2 2 2 2 2 2 2
left_child=1 3 4 15 51 11 31 -7 17 13 -11 30 43 -6 21 -1 -5 -9 -19 28 -21 23 -23 24 39 -24 27 -14 32 35 -4 58 -8 34 -28 -26 -37 38 -29 50 42 -42 59 44 45 46 -13 -46 -48 -50 -15 52 -2 54 55 -54 -56 -16 -3 -41 -38 -25
right_child=2 6 5 16 9 7 19 8 -10 10 -12 12 26 14 57 -17 -18 18 -20 20 -22 22 25 61 29 -27 33 37 -30 -31 -32 -33 -34 -35 -36 36 60 -39 -40 40 41 -43 -44 -45 47 -47 48 -49 49 -51 -52 -53 53 -55 56 -57 -58 -59 -60 -61 -62 -63
leaf_value=-0.0049669532807047915 0.017494701979395687 -0.0044633765557878895 0.1510490981448028 -0.00086297925821845047 0.03732733259166459 0.21071131184697151 0.045909231079035794 0.076973709037129801 0.20394852353880802 0.11076721485370576 0.049972187041535852 0.14925113383863794 0.012205610239859855 0.04860621932624043 -0.016693977190048569 -0.0031759461892705457 0.0018764895666810609 0.065663413352826064 0.15839604960176454 0.010920081136431399 0.016565039105359669 0.044446588873064949 0.15050946727946954 0.0010398052294145932 0.05055054412223399 0.081981975793630091 0.020915030877091994 0.13075148846711154 0.011285525747456927 0.057632226939638001 0.082228452077618364 0.0066623884826624308 -0.0036325534491788124 0.10383381609017178 0.093726625920728196 0.17811570526273163 0.041996455464512111 0.068719935804409424 0.076900034287188321 0.046737795069052408 0.046912508236388401 0.10040800976619293 0.00077647358106756675 0.028377828125126105 0.04910801652688207 0.029668121285675492 0.096079318662661894 0.12989556330115828 0.077342498386768932 0.032385042098964138 0.10794949253960964 0.026916311098406139 0.14919976784902461 0.019088166276947784 -0.0026109563125358837 0.081018141567193225 0.057907914876937874 0.030794901523763449 0.0045878646095587859 0.012221509955823422 0.10310393034680082 0.03832476100348383
leaf_weight=275850 3165 2014 72 53006 5282 75 58 178 72 134 351 61 101 69 56 97658 57660 68 116 11965 17568 224 54 77 50 143 67 92 3664 215 54 31403 1359 493 215 54 50 266 101 630 181 89 103 121 57 244 105 73 95 205 62 8090 51 992 91 87 50 306 3361 100 56 768
leaf_count=275850 3165 2014 72 53006 5282 75 58 178 72 134 351 61 101 69 56 97658 57660 68 116 11965 17568 224 54 77 50 143 67 92 3664 215 54 31403 1359 493 215 54 50 266 101 630 181 89 103 121 57 244 105 73 95 205 62 8090 51 992 91 87 50 306 3361 100 56 768
internal_value=1.11246e-05 -0.00169455 0.038672 -0.00334143 0.0323152 0.0854753 0.00947444 0.131686 0.118029 0.0428525 0.0667692 0.0757639 0.073251 0.0414988 0.0482021 -0.00449867 0.000564359 0.10094 0.124125 0.0133111 0.014278 0.0512656 0.0708004 0.0479812 0.0546302 0.100766 0.0839333 0.0701934 0.00769066 0.0762596 0.121555 0.00586355 -0.00160473 0.0938614 0.0764274 0.0953306 0.109324 0.0829533 0.10257 0.0471808 0.0436758 0.0645462 0.0369111 0.0584114 0.0627377 0.056927 0.0711998 0.0944733 0.0594439 0.0466216 0.0766923 0.0246986 0.0206541 0.0285217 0.062063 0.106216 0.0188496 0.0234486 0.00119639 0.0420095 0.0742796 0.0349272
internal_weight=580077 555566 24511 484174 21580 2931 71392 509 434 9054 485 2422 2296 8569 3287 373508 110666 362 184 34614 29533 2925 421 2504 1659 197 1335 560 5081 425 126 36778 1417 775 282 210 160 459 193 1234 1103 270 833 961 840 710 466 130 405 300 131 12526 4436 1271 279 138 141 362 5375 730 106 845
internal_count=580077 555566 24511 484174 21580 2931 71392 509 434 9054 485 2422 2296 8569 3287 373508 110666 362 184 34614 29533 2925 421 2504 1659 197 1335 560 5081 425 126 36778 1417 775 282 210 160 459 193 1234 1103 270 833 961 840 710 466 130 405 300 131 12526 4436 1271 279 138 141 362 5375 730 106 845
is_linear=0
shrinkage=0.05


Tree=15
num_leaves=63
num_cat=0
split_feature=4 4 4 5 5 5 4 5 4 6 4 4 5 6 4 5 5 5 5 0 6 4 4 6 6 5 5 1 4 6 1 0 4 6 5 6 5 0 5 6 6 1 8 6 5 8 1 4 5 6 4 0 5 5 8 6 4 5 5 5 5 6
split_gain=13850.9 4218.26 2250.53 1532.19 1019.64 904.446 716.697 521.202 405.99 305.506 286.541 268.36 267.999 267.146 209.86 201.481 191.224 175.627 174.303 434.868 171.669 166.738 193.125 150.456 150.302 149.398 143.482 136.361 145.348 129.276 124.269 164.37 273.677 121.952 150.816 112.09 151.033 110.178 107.277 170.116 110.294 103.083 92.9533 92.6784 133.686 87.558 86.8077 190.629 85.0156 136.24 104.586 82.6512 87.8058 82.0855 81.6209 80.4095 77.748 75.3192 69.6907 68.0189 66.7993 135.582
threshold=0.67355371900826455 1.9173553719008267 0.1942148760330579 0.1857298474945534 1.1348039215686276 0.32257625272331164 1.0702479338842978 0.086873638344226595 4.8305785123966958 0.19214876033057854 0.40909090909090912 2.1570247933884303 0.049972766884531596 0.19473140495867772 0.037190082644628107 0.82121459694989118 0.21200980392156865 0.37023420479302838 1.7193627450980393 5.5000000000000009 1.0180785123966944 1.7066115702479341 1.8264462809917357 0.4023760330578513 0.28340220385674936 0.24645969498910678 1.4375000000000002 5.5000000000000009 4.8305785123966958 0.19473140495867772 5.5000000000000009 5.5000000000000009 2.8719008264462818 0.095041322314049603 0.22024782135076257 0.12121212121212123 0.15475217864923749 1.0000000180025095e-35 0.2666802832244009 0.20661157024793392 0.19473140495867772 5.5000000000000009 0.25881904510252091 0.095041322314049603 0.28213507625272333 0.60355339059327384 2.5000000000000004 1.2190082644628102 0.58203976034858396 0.49776170798898073 1.0123966942148763 9.5000000000000018 0.4225898692810458 0.09524782135076254 0.78656609248549325 0.35141184573002759 2.8099173553719012 0.4129901960784314 0.12854030501089328 0.23216230936819174 0.50708061002178662 0.44473140495867775
decision_type=2 2 2 2 2 2 2 2 2 2 2 2 2 2 2 2 2 2 2 2 2 2 2 2 2 2 2 2 2 2 2 2 2 2 2 2 2 2 2 2 2 2 2 2 2 2 2 2 2 2 2 2 2 2 2 2 2 2 2 2 2 2
left_child=2 5 14 45 9 12 29 -4 11 -5 43 -6 -2 16 -1 24 35 -11 30 -20 21 54 -23 -19 -8 -15 -10 28 37 -7 31 32 -13 34 -12 36 -14 -25 40 57 58 -21 -29 44 -9 -3 47 59 -31 50 -50 -39 -53 -37 -17 -27 -32 -40 -35 -18 61 -26
right_child=1 3 7 4 8 6 15 10 26 17 33 18 13 25 -16 20 46 23 19 41 -22 22 -24 27 60 55 -28 42 -30 48 56 -33 -34 38 -36 53 -38 51 39 -41 -42 -43 -44 -45 -46 -47 -48 -49 49 -51 -52 52 -54 -55 -56 -57 -58 -59 -60 -61 -62 -63
leaf_value=-0.0046432577592096088 -0.0087926507554549477 0.021714845866535271 -0.0019422392822346448 0.14601312958836263 0.055053495783579681 0.079865675941966044 0.058735334978681192 0.007328386956604746 0.14803592987256506 0.031050022187097372 0.017284650377865529 0.099370513971215532 0.022096635451492423 0.0038375051718828215 -0.002164302031990781 0.070316361034852698 0.098711217124507117 0.14587416542026233 0.043755717688011675 0.26847359605555265 0.039634475884495368 0.16591629751854475 0.069365488656903382 0.11101455525878599 0.035455416594389839 0.019695584522054509 0.25442781436390111 0.035297184170417072 0.090005374250739276 0.015573250286413791 0.1000158395444931 0.09248743374755948 0.19892563978668121 0.0033207780387953969 0.064531800989061597 -0.0020002231210099987 0.06130794942895082 0.058828904806111637 0.027689253203737153 0.01058617043120254 0.00081747297267524576 0.16985934387962776 0.10896310911810386 0.0026540221026385199 0.049720674063030046 -0.016822594977915287 0.027529780195065329 0.13918923673263636 0.035845456307828892 0.019168726536500535 0.098713776592532512 -0.014341478744771943 0.045121182580137226 0.0175739168021465 0.022720318830033649 0.0067615692401645196 0.033352121292205342 0.075195796253240632 0.011566752163623503 0.037764271770581781 0.038281493885315793 0.017049698762950555
leaf_weight=298456 1401 209 28290 102 253 87 592 8778 73 514 1404 159 1127 5860 119583 304 53 53 53 53 830 90 122 85 2654 3591 56 53 326 7623 86 392 122 3686 192 644 314 2061 896 12909 6125 53 223 44412 190 500 413 64 969 3036 71 67 846 3182 128 1806 89 92 8405 336 2974 1606
leaf_count=298456 1401 209 28290 102 253 87 592 8778 73 514 1404 159 1127 5860 119583 304 53 53 53 53 830 90 122 85 2654 3591 56 53 326 7623 86 392 122 3686 192 644 314 2061 896 12909 6125 53 223 44412 190 500 413 64 969 3036 71 67 846 3182 128 1806 89 92 8405 336 2974 1606
internal_value=4.91644e-05 0.0262804 -0.00222792 0.0638681 0.0724633 0.0202215 0.02733 0.003954 0.109739 0.0605058 0.00586933 0.10109 0.0122448 0.0139396 -0.00393414 0.0377072 0.0223356 0.0584429 0.112656 0.160696 0.0546649 0.0740364 0.110354 0.0622339 0.0345133 0.00936537 0.194222 0.0610231 0.0582677 0.0191416 0.103648 0.113408 0.142594 0.00947842 0.0229685 0.0187556 0.0306409 0.0548853 0.00880797 0.0121166 0.00628381 0.219166 0.0948171 0.00359022 0.00822653 -0.00546247 0.044109 0.0592243 0.01869 0.0245189 0.0401374 0.0532811 0.0407575 0.0142792 0.0562138 0.0153675 0.0661126 0.0321129 0.00905293 0.0460681 0.0325311 0.0285165
internal_weight=579723 46305 533418 6428 5719 39877 21086 115379 1389 4330 87089 1260 18791 17390 418039 9300 6133 4228 1007 159 1474 644 212 3714 7826 11257 129 3661 3385 11786 848 673 281 33709 1596 5267 1441 3059 32113 13897 18216 106 276 53380 8968 709 866 453 11699 4076 1040 2974 913 3826 432 5397 175 988 12091 389 7234 4260
internal_count=579723 46305 533418 6428 5719 39877 21086 115379 1389 4330 87089 1260 18791 17390 418039 9300 6133 4228 1007 159 1474 644 212 3714 7826 11257 129 3661 3385 11786 848 673 281 33709 1596 5267 1441 3059 32113 13897 18216 106 276 53380 8968 709 866 453 11699 4076 1040 2974 913 3826 432 5397 175 988 12091 389 7234 4260
is_linear=0
shrinkage=0.05


Tree=16
num_leaves=63
num_cat=0
split_feature=4 4 4 5 5 5 5 4 4 4 4 6 4 5 6 5 6 6 5 6 5 5 0 6 5 4 1 5 4 0 1 0 4 1 5 4 1 7 6 4 6 5 6 1 1 3 5 4 0 5 6 5 4 4 1 4 5 0 1 8 6 4
split_gain=12525.8 3413.7 2424.28 1386.02 900.536 795.372 539.896 385.901 368.88 285.231 276.97 267.885 236.094 232.836 212.916 170.026 175.194 169.074 177.627 163.346 172.049 161.448 392.468 160.927 158.111 130.811 143.746 129.493 122.207 118.69 107.639 119.422 221.906 297.16 104.816 100.641 121.849 182.698 96.8222 124.367 95.0072 93.1044 114.164 93.032 92.9347 98.4209 91.8562 90.1314 110.34 88.9709 88.1446 84.9811 84.0111 81.8747 76.7104 85.5947 75.7438 75.6399 73.4405 71.4475 71.364 71.0695
threshold=0.74793388429752083 1.9173553719008267 0.23553719008264465 0.20949074074074078 1.0948393246187365 0.35709422657952078 0.10355392156862746 4.8305785123966958 1.2024793388429755 0.070247933884297536 2.1570247933884303 0.19214876033057854 0.49173553719008273 0.049972766884531596 0.28564049586776868 0.82121459694989118 1.0523415977961434 0.19473140495867772 0.21200980392156865 0.095041322314049603 0.21071623093681921 1.7193627450980393 5.5000000000000009 0.45213498622589537 0.24645969498910678 4.8305785123966958 5.5000000000000009 1.4375000000000002 1.7066115702479341 7.5000000000000009 5.5000000000000009 5.5000000000000009 2.8719008264462818 3.5000000000000004 0.11070261437908498 3.4958677685950419 1.0000000180025095e-35 0.51380165289256208 0.12121212121212123 0.64876033057851246 0.12121212121212123 0.18927015250544665 0.21229338842975209 5.5000000000000009 2.5000000000000004 77.576250000000016 0.79779411764705899 1.8388429752066118 6.5000000000000009 0.029752178649237477 0.45213498622589537 0.18688725490196081 0.34297520661157027 0.88016528925619852 1.5000000000000002 2.4173553719008267 0.09163943355119826 8.5000000000000018 1.5000000000000002 0.12940952255126045 0.087293388429752081 2.8719008264462818
decision_type=2 2 2 2 2 2 2 2 2 2 2 2 2 2 2 2 2 2 2 2 2 2 2 2 2 2 2 2 2 2 2 2 2 2 2 2 2 2 2 2 2 2 2 2 2 2 2 2 2 2 2 2 2 2 2 2 2 2 2 2 2 2
left_child=2 5 9 34 11 13 49 10 14 -1 -6 -5 19 -2 -7 23 28 18 40 20 -8 30 -23 -10 -19 26 29 -9 57 -13 31 32 -12 -34 -3 36 37 -31 39 -14 51 -40 -43 -24 45 -25 -44 48 -30 -4 -48 -15 60 -16 55 -38 -42 -17 -20 -60 -22 -32
right_child=1 3 6 4 7 8 12 27 15 -11 21 25 38 17 53 16 -18 24 58 -21 52 22 43 44 -26 -27 -28 -29 47 35 61 -33 33 -35 -36 -37 54 -39 41 -41 56 42 46 -45 -46 -47 50 -49 -50 -51 -52 -53 -54 -55 -56 -57 -58 -59 59 -61 -62 -63
leaf_value=-0.0042772514510204494 -0.0093236307985222287 -0.017602742438459714 -0.0060022726907130713 0.14536499442266568 0.05315637633548962 0.04689930108784205 0.010139596315187167 0.14063412755319518 0.04505143420378066 -0.0012789497004304824 0.092707636306118779 0.06003208773857345 0.016957754501601207 0.027382105710589112 0.015077834804622015 0.02710946571547538 0.034244804978006631 0.0044877250104232089 0.071648672138971678 0.0040528371153041977 0.037679927767097179 0.041567937242534929 0.25504991693316764 0.075756890242857644 0.016789472686685885 0.083769632738658312 0.088350207182843282 0.24170642012696983 0.15762048612038296 0.11585502339127873 0.089447313280170332 0.088234906109670802 0.10505998877784875 0.24401728423436483 0.019546696482548961 0.071029974394515763 -0.026396152140064674 0.02158978272976942 0.0049545797341147904 0.055477201365507572 -0.0038185532848433695 0.021324130120358879 0.0091814871605139983 0.16136637999201722 0.01978113043258601 0.03208901560513603 0.069454659456792092 0.060929185173545897 0.075202555994729747 0.00074842516148209499 0.018984785550627215 0.081171524827368557 0.058531428348551441 0.024604636469764456 0.037141161524047901 0.03082660266794033 0.017346040295268299 0.069510326232967434 0.063590926117066182 0.024862744821078867 -0.010666098680935409 0.024696427935527433
leaf_weight=332689 1085 449 6058 84 319 837 4205 73 1937 104153 198 1506 1382 894 3917 160 614 4877 186 40461 231 53 53 151 5624 363 257 56 90 112 103 420 79 75 329 246 110 95 6312 247 505 2780 15022 53 1868 887 92 104 74 25117 1450 80 281 5316 1162 161 2595 307 165 428 114 72
leaf_count=332689 1085 449 6058 84 319 837 4205 73 1937 104153 198 1506 1382 894 3917 160 614 4877 186 40461 231 53 53 151 5624 363 257 56 90 112 103 420 79 75 329 246 110 95 6312 247 505 2780 15022 53 1868 887 92 104 74 25117 1450 80 281 5316 1162 161 2595 307 165 428 114 72
internal_value=4.67061e-05 0.0273647 -0.00193061 0.0606747 0.0692903 0.0208169 0.00493991 0.101698 0.0286571 -0.00356239 0.0942015 0.0569949 0.00730382 0.0130612 0.022752 0.0382605 0.0539592 0.014643 0.0223611 0.0050904 0.0137803 0.10604 0.152661 0.0338877 0.0110761 0.0551447 0.0522971 0.18451 0.0704281 0.0495655 0.0982123 0.106238 0.127719 0.172734 -0.00189302 0.0412077 0.0367343 0.0725932 0.010978 0.0227983 0.0181782 0.0102275 0.0119481 0.208208 0.0264465 0.0384415 0.0103744 0.0973413 0.120432 -0.000563386 0.021996 0.0318001 0.0382356 0.020563 0.0315545 0.00759965 0.0138983 0.0549833 0.0442367 0.0356387 0.0217047 0.0628069
internal_weight=579723 39129 540594 6428 5650 32701 103752 1554 16262 436842 1425 4096 72577 16439 10070 6192 1349 15354 4853 45292 4831 1106 159 4843 10501 4012 3649 129 735 3392 947 772 352 154 778 1886 1640 207 27285 1629 4074 25656 19344 106 2906 1038 16564 268 164 31175 1542 974 626 9233 1433 271 3100 467 779 593 345 175
internal_count=579723 39129 540594 6428 5650 32701 103752 1554 16262 436842 1425 4096 72577 16439 10070 6192 1349 15354 4853 45292 4831 1106 159 4843 10501 4012 3649 129 735 3392 947 772 352 154 778 1886 1640 207 27285 1629 4074 25656 19344 106 2906 1038 16564 268 164 31175 1542 974 626 9233 1433 271 3100 467 779 593 345 175
is_linear=0
shrinkage=0.05


Tree=17
num_leaves=63
num_cat=0
split_feature=4 4 5 4 5 5 5 4 6 4 6 6 4 4 6 6 4 5 0 4 6 5 5 6 6 5 5 5 5 5 4 1 6 4 7 1 0 4 1 1 4 5 1 6 4 1 7 4 5 5 1 1 5 5 4 6 5 6 6 0 5 8
split_gain=11339.6 3223.14 2468.79 1172.36 670.733 607.795 587.518 437.645 427.265 332.656 329.871 257.502 256.802 235.334 202.528 188.133 160.3 145.707 354.202 138.248 136.274 126.49 123.312 137.59 136.411 116.867 116.827 112.735 111.393 106.714 103.4 256.321 101.124 133.591 112.699 97.1438 107.778 200.27 268.187 92.9457 91.1141 88.7093 83.9614 80.4637 112.802 96.7494 78.7421 105.737 100.105 79.7609 131.489 104.442 77.9919 76.3573 73.5957 72.8173 71.0966 119.013 115.556 68.6369 68.2702 248.07
threshold=0.97107438016528935 0.29338842975206619 0.61151960784313741 2.1570247933884303 0.12261710239651417 0.29289215686274517 1.0948393246187365 0.11983471074380167 0.27582644628099179 0.58264462809917361 0.39032369146005513 0.12517217630853997 4.8305785123966958 1.9628099173553721 0.10692148760330579 0.19077134986225899 1.6404958677685955 1.7193627450980393 5.5000000000000009 1.2190082644628102 0.57196969696969713 0.21071623093681921 0.39338235294117652 0.28340220385674936 0.28564049586776868 1.4375000000000002 0.35709422657952078 0.19049564270152508 0.049972766884531596 0.12976579520697171 5.1033057851239674 3.5000000000000004 0.647210743801653 1.3512396694214879 0.51380165289256208 5.5000000000000009 5.5000000000000009 2.8719008264462818 3.5000000000000004 5.5000000000000009 0.94628099173553737 0.047589869281045756 5.5000000000000009 0.45213498622589537 1.3264462809917357 4.5000000000000009 0.3644421487603306 3.4958677685950419 1.0049019607843139 0.79779411764705899 3.5000000000000004 1.5000000000000002 0.47426470588235298 0.58203976034858396 0.30991735537190085 0.11621900826446283 0.23216230936819174 0.18681129476584024 0.16580578512396696 9.5000000000000018 0.82121459694989118 0.91597561503675362
decision_type=2 2 2 2 2 2 2 2 2 2 2 2 2 2 2 2 2 2 2 2 2 2 2 2 2 2 2 2 2 2 2 2 2 2 2 2 2 2 2 2 2 2 2 2 2 2 2 2 2 2 2 2 2 2 2 2 2 2 2 2 2 2
left_child=1 7 5 32 28 10 20 -1 15 14 16 -11 17 43 21 19 -2 35 -19 -7 -5 -6 24 40 27 -14 -17 -13 -3 -18 46 -32 34 -34 60 36 37 -8 -39 52 -24 -9 -20 44 -10 -46 49 -48 -49 50 -22 -51 -15 -54 -23 -30 57 -16 -58 -37 -4 -62
right_child=2 4 3 6 9 8 12 41 13 11 -12 22 25 39 56 26 29 18 42 -21 30 54 23 -25 -26 -27 -28 -29 55 -31 31 -33 33 -35 -36 59 -38 38 -40 -41 -42 -43 -44 -45 45 -47 47 48 -50 51 -52 -53 53 -55 -56 -57 58 -59 -60 -61 61 -63
